{"version": "0.5.2", "metadata": {"date": {"year": 2024, "month": 6, "day": 4, "hour": 10, "minute": 13, "second": 50}, "loudness": -18.240144729614258, "gain": 0.8023294547640802}, "architecture": "WaveNet", "config": {"layers": [{"input_size": 1, "condition_size": 1, "head_size": 8, "channels": 16, "kernel_size": 3, "dilations": [1, 2, 4, 8, 16, 32, 64, 128, 256, 512], "activation": "Tanh", "gated": false, "head_bias": false}, {"input_size": 16, "condition_size": 1, "head_size": 1, "channels": 8, "kernel_size": 3, "dilations": [1, 2, 4, 8, 16, 32, 64, 128, 256, 512], "activation": "Tanh", "gated": false, "head_bias": true}], "head": null, "head_scale": 0.02}, "weights": [-0.012265102006494999, 0.470528244972229, -0.7045262455940247, -0.6768514513969421, -0.2870584726333618, 0.10756096243858337, -0.008315738290548325, 0.8406251072883606, 0.023261789232492447, 0.19072562456130981, -0.266981840133667, -0.17176440358161926, -0.9364831447601318, -0.4415417015552521, -0.40651118755340576, 0.001969854114577174, 0.1746891438961029, 0.2016924023628235, -0.012623334303498268, -0.050615910440683365, 0.029273973777890205, 0.09775140881538391, -0.04071030765771866, 0.131818026304245, 0.00024246014072559774, 0.0006485386402346194, 0.14857298135757446, -0.11626431345939636, -0.10584241151809692, -0.015932530164718628, -0.03419094905257225, 0.1263546496629715, -0.0945533737540245, -0.06953074038028717, -0.08634307980537415, -0.1983080953359604, -0.058268796652555466, 0.13859981298446655, 0.04127277061343193, 0.049418941140174866, 0.2728159725666046, 0.04660315066576004, 0.08229568600654602, -0.12246018648147583, -0.1101507842540741, -0.07709445059299469, 0.0752849355340004, 0.0928196981549263, -0.06070993095636368, -0.036430809646844864, 0.10045049339532852, 0.1556018441915512, 0.04282483085989952, 0.044311996549367905, 0.11923611909151077, -0.09702975302934647, 0.04727712273597717, -0.0911824032664299, -0.11428077518939972, -0.05541500076651573, 0.08307112753391266, -0.048254258930683136, -0.17512619495391846, -0.04556171968579292, 0.039978571236133575, -0.012502741068601608, -0.12019459158182144, 0.06887074559926987, 0.072911337018013, 0.20147840678691864, -0.14696809649467468, -0.03484300523996353, -0.0022603690158575773, 0.08756857365369797, 0.14419831335544586, 0.06823839992284775, -0.011263927444815636, -0.11464909464120865, -0.050706781446933746, -0.059904806315898895, -0.13220050930976868, 0.1970340609550476, -0.008034668862819672, -0.23058554530143738, 0.08835871517658234, 0.009997337125241756, -0.04499800130724907, -0.004117418080568314, 0.22114211320877075, 0.07707863301038742, 0.06606847047805786, 0.09861137717962265, 0.08624225854873657, 0.11825957149267197, -0.1798989623785019, -0.08374066650867462, -0.008241020143032074, -0.01682537980377674, -0.10695292055606842, -0.15661878883838654, 0.10092621296644211, 0.11855253577232361, -0.12344736605882645, -0.06949301064014435, -0.11970706284046173, -0.05871843546628952, -0.14784930646419525, -0.09742970764636993, -0.07561634480953217, -0.042180974036455154, -0.19419154524803162, 0.057798806577920914, -0.007207375485450029, 0.024188093841075897, 0.15402111411094666, -0.16901828348636627, 0.20128726959228516, -0.1984396129846573, 0.06327316910028458, -0.21237999200820923, 0.25497475266456604, 0.05248907953500748, -0.30781111121177673, 0.27530696988105774, -0.07943429052829742, -0.30626243352890015, 0.1791280210018158, -0.1331348866224289, 0.1615593582391739, -0.29004883766174316, -0.015227733179926872, -0.04771038889884949, -0.12245404720306396, -0.05170850455760956, 0.3464605510234833, -0.2296922653913498, -0.006538608111441135, 0.12730546295642853, 0.10922612249851227, 0.03325462341308594, 0.3312637209892273, -0.1512523740530014, 0.1906285285949707, -0.2199997901916504, 0.1140362098813057, 0.0019354147370904684, -0.12122461199760437, 0.2173248529434204, -0.028475400060415268, -0.3568762242794037, 0.0731818675994873, -0.07401082664728165, -0.26397964358329773, 0.2805522382259369, 0.13124367594718933, -0.3670073449611664, 0.31593233346939087, -0.1637524664402008, 0.04277735576033592, -0.15440890192985535, -0.003915119916200638, -0.10007788240909576, -0.13371551036834717, -0.26548805832862854, -0.05240193381905556, 0.14013338088989258, 0.08083877712488174, 0.09274407476186752, -0.2612748444080353, 0.13607734441757202, 0.1580808311700821, -0.19640488922595978, 0.2585847079753876, 0.06922431290149689, -0.27913588285446167, -0.025202801451086998, -0.0376722514629364, 0.03125566616654396, 0.12723693251609802, -0.18014028668403625, -0.15719060599803925, -0.17799901962280273, 0.06873083859682083, 0.1863001585006714, 0.08410126715898514, 0.004578487481921911, 0.07218325883150101, -0.15741749107837677, -0.1132783591747284, 0.2517969012260437, 0.2528174817562103, 0.10676838457584381, -0.27207255363464355, 0.1283520609140396, -0.07941670715808868, -0.22688058018684387, 0.0637492686510086, 0.0869823694229126, -0.22621335089206696, 0.1361149400472641, 0.03818545490503311, -0.04080263525247574, 0.03072310797870159, -0.07542495429515839, -0.2390056997537613, 0.028935521841049194, 0.018728572875261307, 0.1283927857875824, 0.0451752245426178, -0.01981961354613304, 0.010360987856984138, -0.13823699951171875, -0.06668266654014587, 0.023728130385279655, 0.11533651500940323, 0.11270265281200409, -0.16049690544605255, 0.03929384797811508, 0.20216508209705353, -0.17331425845623016, 0.08690627664327621, 0.21269825100898743, -0.016060465946793556, -0.08379925042390823, -0.2022114396095276, 0.09149698913097382, -0.027682961896061897, 0.029522916302084923, -0.02937890775501728, -0.13700184226036072, -0.0872904434800148, 0.18181578814983368, -0.010646689683198929, 0.008409244008362293, 0.08476485311985016, -0.18595317006111145, 0.0178837887942791, -0.0050475867465138435, 0.043074917048215866, 0.10470772534608841, -0.044262178242206573, 0.19696557521820068, 0.028289854526519775, -0.06691088527441025, 0.1904844343662262, -0.047282684594392776, 0.04762442409992218, -0.010486934334039688, 0.08747996389865875, -0.07742577791213989, 0.029687128961086273, 0.09546422958374023, 0.04470914974808693, -0.08583879470825195, -0.051530830562114716, -0.07374382019042969, -0.1630106419324875, -0.006921539083123207, -0.0049215140752494335, -0.08990557491779327, 0.05756574496626854, -0.06645505130290985, 0.06877756863832474, -0.03533999249339104, 0.19660110771656036, -0.0567927360534668, -0.18224963545799255, 0.1903603971004486, 0.11999392509460449, -0.09288926422595978, 0.08764446526765823, -0.07191232591867447, -0.01943049021065235, -0.10925944894552231, 0.0004350386734586209, -0.1141541600227356, 0.12935052812099457, -0.08571118861436844, 0.12977920472621918, -0.11177539080381393, 0.04091288149356842, -0.0456920750439167, -0.035983603447675705, 0.12451567500829697, 0.14813241362571716, -0.03986644744873047, -0.056304123252630234, -0.08399166911840439, 0.13686005771160126, 0.004512733779847622, -0.21492333710193634, 0.2155328094959259, 0.03792889416217804, -0.1503206342458725, 0.1177138090133667, -0.09494676440954208, -0.04148619994521141, 0.03657841309905052, 0.05509071797132492, -0.18599912524223328, 0.08940663933753967, 0.03364460915327072, -0.022147689014673233, -0.05142569541931152, 0.017936183139681816, -0.2361270934343338, -0.022195234894752502, 0.03519989550113678, 0.14148691296577454, -0.1567671298980713, -0.09710852801799774, -0.11449290066957474, 0.1808074712753296, -0.029895728453993797, -0.02864428050816059, 0.2361723780632019, -0.03989429399371147, -0.07107574492692947, 0.20641615986824036, -0.020900908857584, 0.07712361216545105, -0.10078872740268707, -0.154412642121315, -0.05323735624551773, 0.06823351234197617, 0.10481353104114532, 0.1706078052520752, -0.12599784135818481, 0.1676904559135437, 0.09615138173103333, 0.05060230568051338, -0.1596410870552063, 0.19281141459941864, -0.08328793197870255, -0.07007794082164764, -0.007031729910522699, 0.2800018787384033, 0.18800239264965057, 0.05484088510274887, 0.2597290575504303, -0.00860903412103653, -0.13958559930324554, 0.2585350275039673, 0.10627397894859314, -0.16970932483673096, 0.26480260491371155, 0.0999017208814621, 0.002807979006320238, 0.06234070658683777, 0.010720737278461456, -0.028024299070239067, 0.07763008773326874, 0.07711735367774963, 0.08345845341682434, 0.04720162972807884, 0.046208903193473816, 0.015623806975781918, 0.15963968634605408, -0.08354388177394867, -0.032025501132011414, -0.1899203062057495, -0.1274193972349167, -0.1795571893453598, 0.021935012191534042, 0.10400985181331635, 0.08197230100631714, 0.032917775213718414, -0.13204456865787506, -0.026839887723326683, 0.10640968382358551, 0.15330232679843903, 0.23643440008163452, -0.058022402226924896, -0.08531493693590164, -0.07101718336343765, 0.00810838770121336, 0.1614738553762436, 0.21868008375167847, 0.06507167965173721, 0.09384351223707199, 0.18229205906391144, 0.041104428470134735, 0.08177006244659424, 0.0689631849527359, -0.024777686223387718, 0.16525648534297943, 0.010437637567520142, -0.005838559474796057, -0.0371236577630043, -0.00027668033726513386, -0.07624346762895584, -0.019826266914606094, -0.14729033410549164, -0.17840899527072906, -0.09073185175657272, 0.03328283876180649, 0.01686082035303116, -0.03593066334724426, -0.07283584028482437, 0.12163163721561432, 0.11788772791624069, -0.060802530497312546, -0.04675310477614403, 0.07208476215600967, 0.16324259340763092, -0.20814436674118042, 0.19448024034500122, -0.0015892689116299152, 0.04189097508788109, 0.14063464105129242, -0.18373140692710876, 0.07927408069372177, 0.19349034130573273, -0.0863945335149765, 0.0040426105260849, -0.1120457723736763, 0.04548182338476181, -0.12089154124259949, 0.06384984403848648, 0.1617783159017563, 0.007525924127548933, -0.14898109436035156, 0.1139584332704544, -0.0352579765021801, 0.029050011187791824, -0.0388358049094677, 0.13823719322681427, -0.17463696002960205, 0.008325880393385887, -0.07272989302873611, -0.03319339081645012, -0.023815343156456947, 0.25094130635261536, 0.09285561740398407, -0.1805199235677719, 0.06553462892770767, 0.08978607505559921, -0.22019226849079132, 0.17168459296226501, -0.07022871822118759, -0.24073612689971924, -0.041670121252536774, 0.03890097513794899, 0.004233000800013542, -0.021647244691848755, 0.1548548936843872, 0.014581701718270779, 0.01530184131115675, 0.09827462583780289, -0.08181728422641754, 0.3086514472961426, 0.07983710616827011, 0.19886764883995056, -0.0765654444694519, -0.10246936976909637, 0.05742019787430763, 0.14995206892490387, 0.06160356104373932, -0.17357152700424194, 0.10612667351961136, -0.1406518518924713, -0.10982134938240051, 0.17820939421653748, -0.0991847962141037, 0.08500358462333679, -0.08253065496683121, 0.03174237906932831, -0.004635906312614679, -0.06555657088756561, -0.038045383989810944, 0.12474170327186584, -0.007410464808344841, 0.09906090795993805, 0.009025911800563335, 0.25435662269592285, -0.13113290071487427, -0.08211838454008102, -0.09455350041389465, -0.0867018774151802, 0.029337769374251366, 0.06646676361560822, -0.05855955928564072, -0.16009603440761566, 0.24077796936035156, -0.020306922495365143, 0.04754270985722542, 0.23586243391036987, 0.07366198301315308, -0.053272493183612823, 0.09986746311187744, -0.03987932950258255, -0.03889252245426178, 0.22111254930496216, -0.12371514737606049, 0.17103931307792664, -0.06759481132030487, -0.11813201755285263, -0.1573997139930725, 0.006406079046428204, 0.2532045841217041, 0.008194372989237309, 0.04007166996598244, -0.05819566547870636, -0.06606722623109818, 0.17630407214164734, -0.20364907383918762, -0.09460727125406265, 0.12439008802175522, -0.1503620147705078, -0.07466185092926025, 0.0326814167201519, 0.189145028591156, 0.09441038221120834, -0.06994947791099548, -0.051291897892951965, 0.12579098343849182, 0.1497248113155365, 0.13898473978042603, 0.22800186276435852, -0.08497565984725952, -0.0023930242750793695, -0.05754562467336655, -0.13970984518527985, -0.004913877230137587, 0.010285630822181702, -0.17804774641990662, 0.02691647596657276, -0.14906999468803406, 0.10124467313289642, -0.16595695912837982, 0.017638111487030983, 0.21317410469055176, -0.2373255044221878, -0.2658402621746063, -0.045396313071250916, -0.12207069993019104, -0.1764329969882965, -0.033543311059474945, -0.1662461906671524, -0.10197369754314423, 0.006993966177105904, 0.13919509947299957, 0.08238811790943146, 0.06134461611509323, 0.10919870436191559, 0.14257529377937317, -0.126775860786438, -0.028386490419507027, -0.11896935105323792, 0.2031467705965042, -0.10621890425682068, -0.0744938850402832, 0.0770726129412651, -0.059202030301094055, 0.09720554202795029, -0.07290019094944, 0.006689786911010742, 0.03528383746743202, 0.03040423057973385, -0.030816875398159027, -0.20382431149482727, -0.022067449986934662, -0.17917092144489288, -0.05692550167441368, -0.22972401976585388, 0.10330406576395035, -0.10031642764806747, 0.03306551277637482, -0.12630334496498108, -0.13765838742256165, -0.05386973172426224, 0.044729266315698624, -0.12610529363155365, -0.05706436187028885, 0.027087099850177765, 0.19851553440093994, -0.08690465986728668, -0.07954177260398865, 0.13143064081668854, 0.09032835811376572, -0.007798583712428808, -0.05413009971380234, -0.1925973892211914, 0.06891804188489914, 0.05306728184223175, -0.13550974428653717, 0.06597962230443954, 0.12704405188560486, 0.062296073883771896, 0.17627744376659393, 0.11271688342094421, 0.06076441705226898, -0.08463527262210846, 0.027239739894866943, 0.08819092065095901, 0.10451817512512207, -0.01912061683833599, 0.01690807193517685, 0.08514495939016342, 0.014224713668227196, -0.015998033806681633, -0.10258149355649948, -0.2054736316204071, 0.2539878189563751, -0.09610675275325775, -0.1591799408197403, 0.19711467623710632, -0.027082081884145737, 0.01456885039806366, -0.09409411251544952, -0.22414501011371613, -0.24126029014587402, 0.020397329702973366, -0.018147608265280724, 0.16000953316688538, 0.001477547804825008, -0.06337958574295044, -0.03478441387414932, 0.0762922391295433, 0.04343315586447716, -0.0020203806925565004, -0.02459275908768177, 0.0031772139482200146, -0.22635167837142944, 0.11423983424901962, -0.12300105392932892, 0.03344407677650452, 0.09624717384576797, -0.17844611406326294, -0.12096849828958511, 0.20830783247947693, -0.006536361761391163, -0.055916622281074524, 0.1264323741197586, 0.014917907305061817, -0.13447359204292297, 0.07337693870067596, -0.15004611015319824, -0.05465500056743622, 0.005229480564594269, -0.1407027542591095, 0.03359062224626541, 0.016789468005299568, 0.028646906837821007, -0.26504573225975037, 0.27777037024497986, -0.10022632032632828, 0.2973533272743225, -0.2511213719844818, -0.05107412114739418, 0.2501550614833832, -0.1996007114648819, 0.09099048376083374, 0.05856434628367424, -0.2695113718509674, -0.03010580688714981, -0.12777653336524963, 0.2453739196062088, -0.06899401545524597, 0.12952202558517456, 0.09008695930242538, -0.016947094351053238, -0.07295908778905869, 0.03524665907025337, 0.08972447365522385, 0.13697758316993713, 0.07291555404663086, 0.13235241174697876, -0.18859608471393585, 0.27462902665138245, -0.15862713754177094, 0.12794041633605957, -0.19318489730358124, 0.0049231043085455894, 0.20952507853507996, -0.048492204397916794, -0.03581811115145683, 0.17568199336528778, -0.04363671690225601, -0.058655887842178345, 0.29883116483688354, -0.23153913021087646, -0.038337428122758865, 0.15660828351974487, -0.09354975074529648, 0.0723833441734314, -0.10582729429006577, -0.15350446105003357, 0.11173589527606964, -0.009622089564800262, 0.019959473982453346, -0.17330488562583923, 0.18955200910568237, 0.10849399864673615, 0.09554510563611984, -0.23735669255256653, 0.12623551487922668, -0.021158302202820778, -0.06131700426340103, 0.04999704658985138, 0.020685603842139244, -0.04227779805660248, -0.0969705581665039, -0.04988190159201622, -0.006092939991503954, -0.027888312935829163, -0.03870007395744324, 0.12363490462303162, -0.06417535245418549, 0.006687589455395937, 0.08159351348876953, -0.10014401376247406, -0.11403921246528625, -0.1372612863779068, 0.05533820763230324, -0.10966093093156815, 0.09198718518018723, 0.011356038972735405, 0.17976728081703186, 0.04159707576036453, 0.1547057032585144, -0.006541896611452103, -0.10311856120824814, -0.03340623527765274, 0.003390141064301133, -0.06703144311904907, 0.16606572270393372, -0.03176679462194443, -0.011108416132628918, -0.04695849120616913, 0.06154722720384598, 0.025753924623131752, 0.007653547916561365, -0.03682754561305046, -0.10166867822408676, 0.052721861749887466, -0.03683190047740936, -0.022541608661413193, 0.12247706204652786, -0.015391847118735313, -0.18334750831127167, -0.016183611005544662, 0.029587725177407265, 0.03162563964724541, 0.09192638844251633, 0.03552467003464699, 0.16488799452781677, -0.05504554137587547, -0.10124236345291138, 0.023230845108628273, -0.09079489856958389, 0.06963559985160828, 0.0626344382762909, 0.12523163855075836, 0.24824076890945435, 0.23606939613819122, 0.28833478689193726, 0.19803015887737274, -0.13100984692573547, -0.12141869962215424, 0.06360702961683273, 0.045406125485897064, -0.2316007912158966, 0.21483956277370453, -0.01133436057716608, -0.1181139349937439, -0.12706558406352997, 0.17603184282779694, -0.10462585091590881, -0.13177134096622467, 0.10519597679376602, -0.10773026943206787, -0.010469937697052956, 0.14652253687381744, 0.1112796813249588, -0.18093165755271912, 0.2068006545305252, -0.0701892152428627, 0.05857383832335472, -0.07044276595115662, -0.10829688608646393, 0.12337087094783783, 0.022339126095175743, 0.023856086656451225, -0.01484194491058588, -0.04353058338165283, -0.05071224272251129, -0.10093915462493896, 0.02667747251689434, 0.027787743136286736, -0.023080209270119667, -0.02336755208671093, 0.023491283878684044, 0.0707014948129654, -0.05338007211685181, 0.037327006459236145, -0.03127708658576012, 0.012636395171284676, -0.009304470382630825, 0.014277210459113121, 0.42230281233787537, -0.3704543113708496, 0.5941872596740723, -0.5669985413551331, 0.05351456254720688, 0.7554408311843872, 0.859838604927063, -0.486605167388916, 0.08325321227312088, -0.02494765631854534, -0.5287370681762695, -0.28352802991867065, 0.15628159046173096, -0.5582171678543091, 0.1378312110900879, 0.4094560146331787, -0.22410325706005096, 0.1322108805179596, -0.04743679612874985, 0.046894241124391556, 0.1937207281589508, -0.07244554907083511, 0.11796548217535019, 0.0713803842663765, 0.036288101226091385, 0.07560118287801743, 0.060994952917099, 0.025595899671316147, 0.10701364278793335, -0.008269322104752064, 0.16362302005290985, -0.22689363360404968, -0.11628087610006332, -0.12152921408414841, -0.2440432608127594, 0.16329677402973175, 0.13970336318016052, -0.1180323138833046, -0.10236375778913498, -0.0822218805551529, 0.0470249205827713, 0.17867346107959747, -0.08073093742132187, 0.06498851627111435, -0.008803367614746094, -0.03085189498960972, 0.1002233624458313, 0.0484030582010746, 0.09307631850242615, 0.066924087703228, 0.11680172383785248, 0.1262834519147873, -0.15790478885173798, 0.015693016350269318, 0.16172197461128235, -0.09678259491920471, 0.05007590353488922, -0.1675569713115692, 0.2554585933685303, -0.23985956609249115, 0.13567765057086945, 0.09631422907114029, 0.1360580027103424, -0.058268602937459946, 0.15817759931087494, -0.09787656366825104, -0.12363589555025101, -0.24700838327407837, 0.018004637211561203, 0.12320388853549957, -0.016405228525400162, 0.011327460408210754, -0.12710879743099213, -0.018277380615472794, -0.10383155196905136, 0.032626744359731674, 0.09500912576913834, 0.18598105013370514, -0.1255417913198471, 0.04355895146727562, -0.1668894737958908, -0.3032485246658325, -0.27346858382225037, 0.1111636683344841, 0.24534502625465393, 0.23832371830940247, 0.08492355048656464, -0.2876417636871338, 0.1544797420501709, 0.3304600715637207, -0.3507790267467499, 0.16006866097450256, -0.13080333173274994, 0.07784721255302429, -0.15836967527866364, 0.09807254374027252, -0.14612320065498352, -0.04677409678697586, 0.12733452022075653, 0.22845782339572906, 0.3659987449645996, 0.2854847013950348, 0.19170109927654266, -0.08518170565366745, 0.20744016766548157, 0.049778636544942856, -0.3913194537162781, -0.1726243495941162, -0.06448124349117279, -0.15046630799770355, -0.008261671289801598, -0.13264405727386475, 0.2545311450958252, 0.1995384693145752, 0.24708452820777893, 0.3126388490200043, -0.08244471997022629, -0.21286073327064514, 0.04910169541835785, -0.013516996055841446, -0.012527382001280785, -0.3976955711841583, -0.29555678367614746, 0.01922956481575966, 0.14642414450645447, -0.16747184097766876, -0.0023711086250841618, -0.0022087828256189823, 0.2085716873407364, 0.10554080456495285, 0.29588907957077026, -0.16485938429832458, -0.2267940640449524, 0.06675707548856735, 0.22684064507484436, 0.06717328727245331, 0.05361016094684601, -0.2411435842514038, 0.1752578169107437, -0.17056192457675934, 0.08943365514278412, -0.11647044122219086, -0.10601294785737991, 0.13301338255405426, 0.19986997544765472, 0.09653746336698532, -0.323491632938385, -0.2384469211101532, 0.047098033130168915, -0.12431349605321884, -0.12574128806591034, 0.12944741547107697, -0.3624381124973297, -0.3866238296031952, 0.21204432845115662, 0.002338879043236375, 0.09643155336380005, 0.00012327084550634027, -0.08043622225522995, 0.24808575212955475, -0.061206430196762085, 0.03599151223897934, 0.15313851833343506, -0.2908523678779602, -0.2355165332555771, -0.12243341654539108, 0.0563514307141304, -0.07725349813699722, -0.05885278061032295, 0.10458757728338242, 0.13561923801898956, 0.14426979422569275, 0.09946907311677933, 0.24284689128398895, -0.06763063371181488, 0.1510167270898819, 0.21321724355220795, 0.2022591084241867, -0.4173239469528198, 0.18488793075084686, 0.03868509829044342, -0.2024783343076706, -0.04105974733829498, -0.058319590985774994, -0.05911486595869064, -0.2893696129322052, -0.26674720644950867, -0.09014245867729187, -0.15667545795440674, 0.2609464228153229, -0.04918428510427475, 0.21763348579406738, 0.04298105835914612, -0.1251269429922104, 0.07202145457267761, -0.0024242582730948925, 0.1274314671754837, 0.011215359903872013, -0.06230858713388443, -0.07364945858716965, 0.05737284943461418, -0.18634288012981415, -0.08338133245706558, -0.1487114578485489, -0.14934997260570526, 0.1059483215212822, -0.15955105423927307, -0.20588652789592743, 0.05681934580206871, -0.015930626541376114, 0.06960441172122955, 0.020897476002573967, 0.05392007529735565, -0.08975110948085785, 0.009728895500302315, 0.1942940503358841, 0.19144883751869202, -0.13697680830955505, -0.041286420077085495, 0.0025438712909817696, 0.1361064612865448, -0.16966228187084198, -0.022394966334104538, 0.08305748552083969, 0.04187248647212982, -0.13523876667022705, -0.014196373522281647, 0.003841567784547806, -0.27654021978378296, 0.28093037009239197, 0.3531116843223572, 0.17127664387226105, -0.011248914524912834, -0.15514987707138062, 0.2103758156299591, -0.020666325464844704, -0.033433910459280014, -0.11678925156593323, -0.003040919080376625, 0.1529408097267151, -0.18344268202781677, 0.19538545608520508, -0.02513889968395233, -0.1708618551492691, 0.08214152604341507, 0.11211147904396057, 0.1858271360397339, 0.11198491603136063, -0.1483619511127472, 0.17701151967048645, -0.005945947952568531, -0.05909450724720955, 0.16450582444667816, 0.08334968984127045, -0.07267594337463379, -0.11707956343889236, -0.03293022885918617, -0.017142927274107933, 0.16444088518619537, 0.012700323946774006, -0.03916691616177559, 0.27350515127182007, 0.11226977407932281, 0.10142315924167633, 0.009277516975998878, -0.11230657249689102, -0.15831318497657776, -0.2217319905757904, 0.07982970774173737, 0.170076385140419, 0.20530395209789276, -0.18568497896194458, 0.05990084633231163, -0.05640774220228195, 0.10779812932014465, -0.1222982183098793, -0.04613664373755455, -0.016900647431612015, 0.05903049558401108, -0.0295974463224411, 0.008821394294500351, -0.10365594178438187, 0.0669630765914917, -3.761319749173708e-05, 0.014916891232132912, 0.09053567051887512, 0.024154234677553177, -0.003715909318998456, 0.10618241876363754, 0.15777842700481415, 0.0507889948785305, 0.241421639919281, -0.2995111048221588, 0.12781691551208496, -0.03444294258952141, 0.3223101794719696, 0.00888337753713131, -0.11444118618965149, 0.1141245886683464, -0.061350785195827484, 0.04488303139805794, -0.09110613912343979, 0.08836732059717178, 0.30120667815208435, -0.4654073417186737, 0.14318251609802246, -0.13601799309253693, -0.4682961404323578, 0.016347302123904228, -0.17606785893440247, -0.3300330340862274, -0.19361738860607147, -0.2426539808511734, 0.2246682494878769, -0.3751375079154968, -0.21829566359519958, -0.04005541279911995, -0.04282732307910919, 0.051158685237169266, 0.1444154679775238, 0.01206950657069683, -0.019992737099528313, 0.0884011909365654, 0.0353068932890892, -0.07168504595756531, 0.26743021607398987, -0.07641354948282242, -0.15748240053653717, 0.2396305650472641, -0.20091275870800018, -0.13430893421173096, 0.37211522459983826, 0.025171149522066116, 0.09627234190702438, -0.3402138948440552, -0.16427239775657654, 0.03615911677479744, 0.03952260687947273, 0.08104286342859268, 0.02495470829308033, 0.016735447570681572, 0.15599532425403595, -0.27577459812164307, -0.04775417596101761, 0.10938291996717453, -0.19338348507881165, 0.08095841109752655, -0.03381477668881416, 0.15058167278766632, -0.19387760758399963, 0.06853945553302765, 0.055191535502672195, -0.3244043290615082, -0.058248162269592285, 0.3498241603374481, -0.13084441423416138, -0.0851648673415184, 0.20248492062091827, -0.06741324067115784, -0.03979424014687538, -0.26571589708328247, 0.30085861682891846, 0.10237465798854828, 0.0899660512804985, 0.049420420080423355, -0.14994966983795166, 0.031007837504148483, 0.06680615246295929, 0.018332162871956825, -0.006119737401604652, -0.12845000624656677, 0.12508347630500793, -0.24329018592834473, -0.006562217604368925, 0.1002015471458435, -0.193954199552536, -0.021869443356990814, 0.14943869411945343, -0.11498042196035385, -0.14111793041229248, -0.0010144909610971808, -0.02046351321041584, 0.08087930828332901, -0.10280533879995346, -0.15697912871837616, -0.16683240234851837, -0.023079508915543556, 0.17024901509284973, 0.1731823980808258, -0.09767009317874908, -0.17166577279567719, -0.12668482959270477, 0.11960557848215103, 0.0981447845697403, -0.06802667677402496, 0.07632027566432953, 0.09703366458415985, -0.0288565531373024, 0.11474959552288055, -0.13429801166057587, 0.29167500138282776, 0.05009320750832558, 0.03172998130321503, 0.01963752880692482, -0.09827584773302078, 0.0945354700088501, 0.10959909856319427, 0.045560434460639954, 0.049328844994306564, -0.280839741230011, 0.10745831578969955, 0.08698181807994843, 0.2264745980501175, -0.20673316717147827, -0.24373367428779602, -0.3603771924972534, 0.20228132605552673, 0.05258297547698021, -0.0817166417837143, 0.2070823758840561, 0.010463297367095947, -0.1371462345123291, 0.03975311666727066, -0.016710704192519188, -0.22228890657424927, 0.06710638105869293, -0.16266290843486786, -0.08958233147859573, 0.18363577127456665, -0.05864612013101578, 0.16516032814979553, 0.10289455205202103, -0.17680522799491882, -0.18229323625564575, 0.015288879163563251, -0.10143502801656723, 0.08662734925746918, -0.003885641461238265, 0.1581428200006485, -0.18741607666015625, -0.1564921885728836, 0.23651815950870514, 0.10168048739433289, -0.08028529584407806, 0.0007501162472181022, 0.026732049882411957, 0.09231948107481003, -0.30978280305862427, 0.368156373500824, 0.06678759306669235, -0.015348873101174831, 0.10523377358913422, -0.006637264974415302, -0.3341190814971924, 0.10264354199171066, 0.14173059165477753, 0.434332013130188, -0.5094196796417236, -0.08925796300172806, 0.06281369924545288, -0.045921362936496735, 0.10985495895147324, 0.2880238890647888, -0.19520637392997742, -0.09524715691804886, 0.07600715756416321, 0.1144016832113266, 0.08925401419401169, 0.19030199944972992, -0.03185936436057091, -0.13536420464515686, 0.07955261319875717, -0.2326284945011139, -0.3299868404865265, -0.05388418212532997, -0.05993561074137688, 0.061706047505140305, 0.0755763053894043, 0.08985473215579987, 0.052141398191452026, -0.08479467034339905, -0.030597219243645668, 0.07151611894369125, 0.08855241537094116, 0.09761354327201843, 0.006628032308071852, -0.15892061591148376, 0.021729309111833572, 0.014879736118018627, -0.14997470378875732, 0.10862509161233902, 0.2312275916337967, -0.09531059116125107, -0.06845216453075409, -0.03500683978199959, -0.207807719707489, 0.07754553854465485, -0.07300909608602524, -0.018876444548368454, -0.0696956217288971, 0.036632657051086426, 0.14082780480384827, 0.15547224879264832, 0.003582222852855921, 0.10091613978147507, 0.058792974799871445, -0.06900297850370407, -0.010275396518409252, -0.022367781028151512, -0.1213562935590744, 0.08208363503217697, -0.15107084810733795, 0.14324729144573212, -0.05552540719509125, 0.05510207265615463, 0.31343361735343933, -0.27579110860824585, -0.12134421616792679, 0.1779937893152237, -0.0064870091155171394, -0.09966889768838882, -0.012632890604436398, -0.021350465714931488, -0.14801272749900818, -0.021069040521979332, 0.19279253482818604, 0.004215048160403967, -0.049400027841329575, -0.11848067492246628, -0.03494977951049805, -0.1439252346754074, -0.303159236907959, 0.1294969618320465, 0.14935211837291718, 0.05154707655310631, 0.01564939133822918, -0.1537802368402481, 0.04216182976961136, 0.13079890608787537, -0.11127885431051254, -0.22109712660312653, 0.0494832880795002, -0.08643952757120132, -0.2743133008480072, -0.10717923194169998, 0.18923082947731018, -0.14530953764915466, -0.1431301236152649, 0.16413530707359314, 0.10978136956691742, -0.16737841069698334, 0.3224860727787018, 0.7172206044197083, 0.2536945343017578, -0.039271265268325806, 0.24075928330421448, -0.11651517450809479, 0.09450261294841766, 0.08629733324050903, 0.2018745392560959, -0.031028419733047485, 0.02204960025846958, 0.03966430947184563, -0.028494900092482567, 0.12439059466123581, 0.14393605291843414, -0.17640024423599243, 0.16894622147083282, -0.023625392466783524, 0.0453454963862896, -0.09268124401569366, 0.12155229598283768, -0.3904939889907837, -0.06821087002754211, 0.06065377593040466, 0.2867256700992584, 0.045848242938518524, -0.019815189763903618, -0.1028602123260498, 0.06444891542196274, 0.0215674489736557, -0.02723858505487442, -0.10009762644767761, -0.04671948403120041, 0.13308274745941162, 0.10212180018424988, -0.05473697930574417, 0.026390748098492622, -0.08532965928316116, -0.06541088968515396, -0.021270113065838814, 0.1410885900259018, 0.1286902129650116, 0.1466139703989029, 0.303029328584671, 0.13676795363426208, 0.22837311029434204, 0.09671124070882797, 0.24303710460662842, -0.05540462210774422, 0.04010765999555588, -0.1787116527557373, -0.08138597011566162, 0.02080928161740303, 0.21552899479866028, -0.07342754304409027, 0.14701947569847107, -0.3729100823402405, 0.10684816539287567, -0.01919466443359852, -0.08752232044935226, 0.03017454966902733, -0.10006439685821533, 0.15536616742610931, 0.17961734533309937, -0.10400965064764023, 0.12011362612247467, -0.06733148545026779, -0.1239333376288414, -0.04933664947748184, 0.0161048024892807, 0.06246509030461311, 0.07148156315088272, 0.03131407871842384, -0.19290778040885925, -0.05340733751654625, 0.04291858151555061, 0.50083327293396, -0.1042584702372551, 0.07748787850141525, -0.3575380742549896, 0.1986471563577652, 0.03989451006054878, -0.027297159656882286, -0.03426455333828926, -0.05920541658997536, 0.054632097482681274, -0.324518620967865, -0.15479345619678497, 0.35184481739997864, -0.43322691321372986, 0.03390275314450264, 0.30634263157844543, -0.15864568948745728, 0.20479996502399445, 0.004670476540923119, -0.1102251410484314, -0.0678122341632843, 0.1481187641620636, -0.18215906620025635, 0.23283974826335907, -0.04713814705610275, 0.2453453093767166, -0.08294021338224411, 0.3652871251106262, -0.2708544433116913, 0.06236913427710533, 0.05387222394347191, -0.11131858825683594, -0.020996810868382454, -0.3003404438495636, 0.2679331600666046, -0.04020671918988228, -0.338578462600708, 0.19399157166481018, -0.07292478531599045, -0.06650930643081665, 0.11050758510828018, 0.05202065035700798, 0.10662385821342468, -0.019472170621156693, 0.17382857203483582, 0.12727244198322296, 0.23489844799041748, 0.05669049546122551, -0.2847174406051636, -0.12705375254154205, -0.1722293198108673, 0.19512630999088287, 0.13183629512786865, 0.2110266536474228, 0.08537530153989792, -0.004586169496178627, -0.11633666604757309, -0.09907863289117813, 0.09214838594198227, -0.06032635644078255, -0.352084219455719, 0.09173806756734848, -0.1949557065963745, -0.1501079499721527, 0.03186053782701492, 0.04550635442137718, -0.056726694107055664, -0.17650729417800903, 0.01231381855905056, 0.029914025217294693, -0.3466375768184662, 0.08454533666372299, 0.20598722994327545, 0.10321972519159317, -0.0938294306397438, -0.1807636320590973, -0.03162461891770363, 0.01224242802709341, -0.1705513894557953, 0.05215366929769516, 0.19798289239406586, 0.07701210677623749, 0.2731633186340332, 0.12946686148643494, 0.13390740752220154, -0.06240297853946686, -0.1283419281244278, 0.0199417807161808, -0.028377313166856766, 0.06668244302272797, -0.05695154890418053, -0.06796057522296906, -0.19872957468032837, 0.12210556119680405, 0.007102771196514368, -0.10122562199831009, 0.004209698177874088, 0.19929742813110352, 0.15671145915985107, -0.0989062711596489, -0.05418970808386803, -0.13460274040699005, -0.010838060639798641, 0.1263706386089325, -0.13504444062709808, 0.2097606658935547, 0.027557367458939552, -0.079366534948349, 0.09980624914169312, -0.08418520539999008, 0.041346799582242966, 0.25481629371643066, -0.1355503648519516, 0.02596501260995865, -0.262698233127594, 0.011998651549220085, 0.2653461992740631, -0.12209806591272354, 0.2396012246608734, 0.10796234756708145, -0.20966552197933197, -0.123012974858284, 0.18709589540958405, -0.012672126293182373, 0.12305435538291931, 0.005825934000313282, 0.07242916524410248, -0.11320903897285461, -0.18520322442054749, 0.03103926219046116, -0.16678686439990997, -0.23653574287891388, -0.21523259580135345, 0.03754293918609619, -0.10932569950819016, -0.0628790631890297, -0.1691453903913498, -0.08428554236888885, -0.0673731192946434, 0.04116576164960861, -0.05661514401435852, -0.027809130027890205, -0.023270467296242714, -0.1921301782131195, -0.30857521295547485, 0.04550376534461975, -0.1456899642944336, 0.21220514178276062, 0.018279757350683212, 0.06374958902597427, -0.04832851514220238, -0.061134323477745056, -0.06388521939516068, 0.0762937068939209, 0.034561481326818466, -0.09380628913640976, 0.045247822999954224, 0.1414640098810196, -0.01761765405535698, 0.032864224165678024, 0.16547922790050507, 0.18493600189685822, -0.22713184356689453, 0.10332299768924713, 0.12909264862537384, -0.12152925878763199, -0.1917935609817505, 0.07331393659114838, -0.18096229434013367, -0.12961508333683014, 0.02966698259115219, 0.21157504618167877, -0.08738036453723907, -0.15886364877223969, 0.14060482382774353, -0.03592381998896599, -0.18755751848220825, 0.2296508401632309, -0.041274428367614746, 0.006149923428893089, 0.06984308362007141, -0.01938300020992756, -0.02192377857863903, 0.1742614060640335, 0.06488889455795288, -0.09391535073518753, -0.10890920460224152, -0.11295469850301743, 0.00664354907348752, 0.12471996992826462, -0.04616398736834526, -0.19576658308506012, -0.08717194199562073, 0.055597834289073944, -0.18717221915721893, -0.1590878665447235, 0.027435332536697388, 0.18838830292224884, 0.00632705632597208, 0.016997983679175377, 0.07055216282606125, 0.16302606463432312, -0.07198392599821091, -0.2259271889925003, 0.1627616435289383, 0.13964393734931946, -0.1310035139322281, -0.09897062927484512, 0.05922552943229675, 0.061889830976724625, 0.178798109292984, 0.13326755166053772, -0.04170631244778633, -0.0926477313041687, 0.08031371235847473, 0.2145555019378662, -0.1591196358203888, 0.046854518353939056, -0.05062323436141014, -0.09576786309480667, 0.09656306356191635, 0.010150667279958725, -0.03039136715233326, 0.014644245617091656, 0.027109671384096146, -0.21181663870811462, -0.12370723485946655, 0.2029520571231842, 0.06177516654133797, -0.16113385558128357, 0.15840555727481842, 0.07051417231559753, -0.1132832020521164, -0.06924846023321152, -0.06162213161587715, 0.08654124289751053, 0.10750873386859894, -0.11667784303426743, 0.008941744454205036, -0.09438349306583405, 0.12527874112129211, 0.16345331072807312, -0.056143928319215775, 0.16318847239017487, 0.08743351697921753, -0.054752569645643234, 0.047121044248342514, 0.06933262199163437, -0.07990685850381851, 0.2048206627368927, 0.018568428233265877, -0.120745450258255, 0.09366967529058456, -0.08750709891319275, 0.0779867172241211, 0.004889224655926228, -0.1921069324016571, -0.13028264045715332, -0.18523377180099487, -0.1188395619392395, 0.1252552717924118, -0.2309848666191101, 0.07904531061649323, 0.11531858146190643, -0.04484790191054344, -0.02989678457379341, -0.004320052918046713, 0.10677995532751083, 0.25904062390327454, -0.06110208109021187, 0.0796494334936142, -0.16365964710712433, -0.15490779280662537, 0.11982636898756027, -0.1815018504858017, 0.05753181129693985, -0.027142519131302834, -0.031684231013059616, -0.1312524974346161, 0.053861409425735474, -0.09654862433671951, -0.07883686572313309, 0.0773359164595604, 0.19066885113716125, 0.02097221091389656, 0.026082368567585945, -0.08373847603797913, 0.05473850667476654, -0.1851123869419098, 0.18606112897396088, 0.09731274843215942, 0.22004328668117523, -0.33565571904182434, 0.06665845960378647, -0.06459780782461166, -0.1563580483198166, 0.050083454698324203, -0.023782169446349144, 0.11528852581977844, 0.14514751732349396, -0.3167577385902405, 0.38372933864593506, -0.03941461443901062, -0.30550679564476013, 0.31654950976371765, 0.09637831151485443, 0.17395684123039246, 0.2312355786561966, -0.032941654324531555, 0.14977394044399261, -0.36795809864997864, 0.11651129275560379, 0.1051449328660965, -0.08902356773614883, 0.01911887340247631, -0.02860734984278679, -0.2387879192829132, -0.0010288560297340155, 0.05355163291096687, 0.05707154795527458, 0.03575296700000763, -0.11588244140148163, -0.22733865678310394, -0.0441107302904129, 0.16087393462657928, -0.1119416132569313, -0.06003229692578316, 0.12537699937820435, -0.1796189695596695, -0.07533933967351913, -0.14753487706184387, 0.015896422788500786, 0.13363583385944366, -0.035122934728860855, 0.016845038160681725, -0.108155257999897, 0.07551766186952591, 0.10613370686769485, -0.009274914860725403, -0.1725088208913803, 0.14550156891345978, 0.042094383388757706, -0.11801855266094208, -0.03294973075389862, 0.05135340988636017, -0.0036055464297533035, -0.007890874519944191, 0.0010132425231859088, 0.2129724770784378, -0.22786779701709747, -0.050103917717933655, 0.06392131745815277, 0.10501111298799515, 0.15169863402843475, 0.18577229976654053, 0.006449185311794281, -0.18346674740314484, 0.05850638449192047, 0.06735563278198242, 0.0776481032371521, -0.07079912722110748, -0.04753114655613899, 0.010220637544989586, -0.02922636829316616, 0.01951039955019951, 0.232563316822052, 0.08413292467594147, 0.005755455698817968, 0.048517175018787384, -0.14392411708831787, 0.1710345447063446, 0.1256200075149536, -0.15396298468112946, -0.03537549450993538, 0.0623333714902401, -0.2103050798177719, -0.030330773442983627, -0.10973554104566574, 0.230558842420578, -0.08492650836706161, 0.04318847879767418, -0.12825042009353638, 0.013018903322517872, -0.15806157886981964, -0.08621017634868622, 0.14177823066711426, -0.0030484043527394533, 0.13667486608028412, -0.023399731144309044, 0.02359735034406185, 0.11412812024354935, 0.16236889362335205, -0.20881423354148865, -0.007697006221860647, 0.12073598802089691, -0.10766464471817017, -0.10836225748062134, -0.20319022238254547, 0.005645180586725473, 0.07587626576423645, -0.010368579998612404, -0.2914274334907532, 0.004068418871611357, -0.2362200915813446, 0.03312753140926361, -0.03267786651849747, 0.3102085292339325, 0.01689797081053257, -0.09391987323760986, -0.0006666347617283463, 0.25119921565055847, -0.00438086548820138, 0.35437044501304626, -0.19019252061843872, -0.07533662021160126, -0.02358577586710453, -0.1258922517299652, -0.008038347586989403, -0.17379634082317352, -0.10212322324514389, 0.12458532303571701, 0.11948809027671814, -0.03463605046272278, 0.031223034486174583, -0.1425478607416153, -0.13006991147994995, 0.010919039137661457, 0.1494254171848297, 0.29861024022102356, 0.13352012634277344, 0.026979029178619385, -0.10566696524620056, 0.027599450200796127, -0.15731783211231232, 0.08270923793315887, 0.1296563744544983, 0.09207308292388916, -0.051545340567827225, -0.06516192108392715, 0.08094120770692825, 0.08017933368682861, 0.06914837658405304, 0.08268555998802185, 0.08636286854743958, -0.03122703544795513, -0.35881778597831726, 0.17841897904872894, 0.2272338718175888, -0.4438926577568054, 0.029289711266756058, -0.5400373339653015, -0.3711169958114624, -0.4884835183620453, 0.8227840065956116, -0.7502123713493347, -0.5628952383995056, -1.1018595695495605, 0.23532594740390778, -0.7431321740150452, 0.18631954491138458, -0.5156741738319397, -0.20635837316513062, -0.12542824447155, 0.09701751172542572, 0.24494057893753052, 0.2734127640724182, -0.09982214868068695, 0.0753358006477356, 0.07866434752941132, 0.006579868495464325, -0.061899710446596146, 0.21185491979122162, 0.4273604452610016, -0.05417342111468315, 0.32435348629951477, -0.02496272884309292, -0.09289588034152985, -0.08486635237932205, -0.2316746711730957, 0.023509586229920387, 0.12189789861440659, -0.19532093405723572, 0.17576555907726288, 0.01722443476319313, -0.3735952079296112, 0.410199373960495, -0.24420158565044403, 0.10409798473119736, 0.3276467025279999, -0.22456103563308716, 0.31554359197616577, -0.04988569766283035, 0.022871701046824455, -0.0710180476307869, -0.24478673934936523, 0.045664265751838684, 0.3176046907901764, -0.11212504655122757, -0.07416800409555435, 0.15031540393829346, 0.011623663827776909, 0.09759785234928131, -0.11280538141727448, -0.1468222439289093, -0.28289127349853516, -0.026971053332090378, 0.04971788823604584, 0.17038287222385406, -0.24235525727272034, 0.2602047324180603, 0.07664285600185394, -0.36035528779029846, -0.08354629576206207, -0.32760679721832275, 0.07996124774217606, -0.1797565370798111, -0.099105603992939, -0.17544874548912048, 0.17260199785232544, 0.20972485840320587, 0.19383898377418518, 0.2794612646102905, -0.2455434650182724, 0.025483645498752594, 0.20840942859649658, 0.27445194125175476, 0.0011219482403248549, -0.10305732488632202, -0.474671870470047, 0.22387731075286865, -0.060245905071496964, 0.19715341925621033, 0.5070891380310059, 0.14514243602752686, -0.20938269793987274, -0.17005570232868195, 0.47137948870658875, -0.34361913800239563, 0.10637068748474121, 0.14653868973255157, -0.12600085139274597, -0.1222882941365242, -0.04819687455892563, -0.24741530418395996, -0.10344476252794266, 0.010477342642843723, 0.1593976467847824, -0.03347683325409889, 0.048053137958049774, 0.24314916133880615, 0.1462724208831787, -0.08457520604133606, -0.23527738451957703, -0.13275280594825745, -0.2708069682121277, 0.0028145117685198784, 0.03190573677420616, 0.1639188975095749, -0.09713344275951385, 0.025639807805418968, 0.08311942219734192, -0.09849350154399872, 0.1468789428472519, -0.4276948869228363, -0.3046201169490814, -0.07433837652206421, 0.15707552433013916, -0.11944680660963058, -0.13955146074295044, 0.3280876576900482, -0.3327667713165283, -0.19720223546028137, 0.25418704748153687, 0.19833330810070038, 0.10010778903961182, 0.029322348535060883, 0.03325510025024414, 0.16616913676261902, -0.2469155490398407, -0.04605751112103462, 0.1626165360212326, -0.07932905852794647, 0.21702983975410461, -0.21046285331249237, 0.0046773930080235004, -0.13995851576328278, 0.023374896496534348, 0.12727154791355133, -0.05161605030298233, -0.07159661501646042, 0.041959259659051895, -0.1094420850276947, 0.14263449609279633, -0.266883909702301, -0.2547755241394043, -0.08103854209184647, -0.3121742308139801, -0.06364700943231583, 0.10768114775419235, 0.26152360439300537, -0.16190889477729797, 0.05697276070713997, 0.1073688194155693, -0.1697154939174652, 0.2672014832496643, -0.09290433675050735, 0.018653176724910736, -0.06504704058170319, -0.030401911586523056, 0.08267147094011307, -0.07741424441337585, 0.06187862157821655, -0.05252230912446976, -0.1087530106306076, 0.006204589270055294, 0.18900534510612488, 0.2557346820831299, 0.07968669384717941, 0.18022093176841736, 0.06249261647462845, -0.08507804572582245, -0.16900260746479034, -0.20750324428081512, -0.20267915725708008, 0.3900678753852844, -0.0949462428689003, 0.01739962212741375, -0.16647185385227203, -0.14744986593723297, 0.21186290681362152, 0.3210192620754242, -0.05681643262505531, -0.039700377732515335, 0.26150989532470703, -0.10483229905366898, -0.2196456789970398, 0.12589608132839203, 0.1782941073179245, 0.18905985355377197, -0.3046170175075531, 0.017501773312687874, -0.2839081585407257, -0.15465527772903442, 0.05043590068817139, 0.0960487499833107, -0.20121310651302338, 0.226438507437706, 0.33214297890663147, -0.1471252292394638, 0.08895139396190643, -0.1959822177886963, 0.06728730350732803, -0.07649024575948715, -0.07025177031755447, -0.2518114745616913, -0.2995164692401886, 0.43692347407341003, -0.09212550520896912, -0.07315877079963684, -0.21677301824092865, 0.1211831122636795, -0.10119130462408066, 0.10436449944972992, -0.10054970532655716, -0.21077948808670044, 0.33865803480148315, -0.3457445800304413, -0.04848568141460419, 0.07414023578166962, 0.08747006952762604, 0.017611170187592506, -0.2427971363067627, 0.3870501220226288, -0.3197852671146393, -0.1161108985543251, -0.03707471117377281, -0.13025198876857758, 0.1847294420003891, 0.2685300409793854, 0.11708129942417145, -0.09101684391498566, 0.3024868965148926, 0.029575234279036522, 0.032619114965200424, -0.08494051545858383, -0.08443189412355423, 0.23308800160884857, -0.0023050273302942514, -0.23508888483047485, -0.09709767252206802, -0.2220756709575653, 0.2045290172100067, 0.1522570103406906, -0.2143523395061493, 0.09269178658723831, -0.22741101682186127, 0.23537074029445648, -0.13692323863506317, 0.1447555124759674, 0.3804241418838501, 0.19299104809761047, 0.23569165170192719, -0.04238937050104141, -0.007005240302532911, 0.07570336014032364, -0.23142755031585693, -0.2611815929412842, 0.20458252727985382, 0.05713535100221634, 0.10261420905590057, -0.30602604150772095, 0.26034778356552124, -0.1187441498041153, -0.14949624240398407, 0.0179060697555542, -0.12469611316919327, -0.36073800921440125, -0.030779797583818436, -0.01548035442829132, -0.012030002661049366, -0.09811244159936905, -0.13212880492210388, 0.05760536342859268, 0.06836999952793121, 0.08915886282920837, 0.015321352519094944, 0.05742807313799858, 0.05473656207323074, -0.19735288619995117, 0.03226311132311821, -0.17228703200817108, -0.05355377495288849, -0.12804166972637177, 0.19222378730773926, 0.03719916194677353, -0.030671942979097366, -0.11668603122234344, -0.25621235370635986, -0.03188517689704895, 0.049519941210746765, -0.014650961384177208, -0.015450803562998772, -0.026062224060297012, -0.1917654424905777, 0.009252930991351604, 0.03808710724115372, -0.017091011628508568, -0.05210718885064125, 0.024806639179587364, 0.10029809921979904, -0.18518607318401337, -0.07994073629379272, -0.07437293231487274, -0.02627851441502571, 0.08909793198108673, 0.11687444150447845, -0.14161774516105652, -0.057719115167856216, 0.06513143330812454, -0.020071852952241898, 0.05175047367811203, 0.0558469258248806, -0.08060847967863083, -0.15257492661476135, -0.09250599145889282, -0.026626722887158394, -0.07847991585731506, -0.020369673147797585, 0.13503088057041168, 0.0007938537746667862, -0.15851792693138123, 0.03598477691411972, -0.0763164535164833, 0.030868541449308395, -0.01770220883190632, 0.09405524283647537, -0.05123446136713028, -0.0024008569307625294, 0.14512962102890015, 0.11758464574813843, 0.10451897978782654, -0.04396459460258484, -0.08284185826778412, 0.035011548548936844, 0.23154720664024353, -0.04622706025838852, -0.2527439296245575, 0.12691304087638855, 0.03270699456334114, 0.04798256233334541, -0.18055035173892975, -0.07424822449684143, -0.02002790942788124, 0.08297870308160782, -0.06506870687007904, -0.18507970869541168, 0.05526242405176163, 0.061996787786483765, -0.11365044862031937, 0.10344423353672028, -0.10399072617292404, 0.20586779713630676, 0.018841683864593506, -0.07097572833299637, 0.012560367584228516, 0.015820572152733803, -0.052632808685302734, -0.08382667601108551, 0.14579583704471588, 0.0641714483499527, 0.038578230887651443, 0.054083243012428284, 0.05597949028015137, 0.044332992285490036, -0.20661619305610657, -0.08129695802927017, 0.01625591330230236, -0.14478133618831635, 0.1093403771519661, 0.04763007164001465, -0.13382916152477264, -0.021715227514505386, 0.08865111321210861, -0.03944019973278046, 0.05471338331699371, -0.028388746082782745, 0.05925383418798447, 0.0759238675236702, 0.10384050011634827, -0.0029120196122676134, -0.2967325747013092, 0.14827586710453033, -0.37147027254104614, -0.011591183952987194, 0.08659280836582184, 0.023714374750852585, 0.0430920235812664, -0.12683114409446716, -0.13755978643894196, -0.04582890123128891, -0.11221054196357727, -0.12097279727458954, -0.4067557156085968, 0.4637208580970764, -0.012456852942705154, -0.0394706130027771, -0.18162643909454346, 0.07021642476320267, 0.3949374258518219, -0.37995457649230957, 0.0834667906165123, 0.30544576048851013, 0.1800912320613861, 0.0795254185795784, 0.06836982071399689, -0.2649465501308441, 0.10870523750782013, 0.10411489754915237, 0.08209572732448578, -0.20367717742919922, 0.08493608236312866, -0.33225950598716736, -0.03537033498287201, -0.02185911498963833, -0.26281464099884033, 0.07579535990953445, 0.009862788952887058, -0.3006822466850281, 0.05745628476142883, 0.1304723024368286, -0.29040488600730896, -0.057646747678518295, -0.3689362406730652, 0.16395600140094757, 0.053191058337688446, 0.17965447902679443, -0.005778870079666376, -0.13854876160621643, 0.1776307374238968, 0.05506857484579086, -0.013919525779783726, 0.19314874708652496, 0.15193340182304382, 0.18796522915363312, -0.027374453842639923, -0.015934554859995842, 0.08270815014839172, -0.14789026975631714, -0.037719566375017166, -0.20421102643013, 0.04778202995657921, 0.0015140052419155836, -0.05766327306628227, -0.15749499201774597, -0.15730102360248566, 0.22211743891239166, -0.33246538043022156, -0.1368667334318161, 0.007604615297168493, 0.15759707987308502, 0.11170371621847153, 0.16431356966495514, -0.004175638314336538, 0.0765601396560669, -0.12571042776107788, 0.27202221751213074, -0.16771364212036133, 0.08861225843429565, -0.250436395406723, 0.01700230874121189, 0.1575896143913269, -0.2208465188741684, -0.07545828819274902, 0.14589881896972656, -0.19993935525417328, 0.06650398671627045, 0.2078261375427246, -0.2233034372329712, 0.12295569479465485, -0.1561368703842163, 0.01756681688129902, 0.29273051023483276, 0.1315353512763977, -0.05751240253448486, 0.05534325912594795, 0.08443109691143036, -0.21157585084438324, 0.12794815003871918, 0.041899364441633224, 0.005205063149333, -0.13813279569149017, 0.08232375979423523, -0.04143919050693512, 0.0826309323310852, -0.05443752184510231, 0.1444569081068039, -0.018706873059272766, -0.1803155243396759, -0.009920833632349968, -0.14162053167819977, -0.01897759549319744, 0.13721995055675507, -0.08505883812904358, -0.15854376554489136, -0.10237879306077957, -0.020726049318909645, -0.012172266840934753, -0.11656201630830765, -0.008893492631614208, 0.03177449479699135, -0.1423429697751999, -0.0015203404473140836, 0.14802059531211853, 0.13264992833137512, -0.022749468684196472, -0.14401622116565704, -0.09432166069746017, 0.17624706029891968, -0.08977889269590378, -0.001164812594652176, -0.027209879830479622, -0.07078118622303009, 0.07782337814569473, 0.07435991615056992, -0.10488774627447128, -0.15051805973052979, 0.22134341299533844, 0.03798479959368706, -0.1468091607093811, 0.2657093107700348, 0.003264492843300104, -0.17181254923343658, -0.07763639837503433, 0.27101975679397583, 0.06213515251874924, -0.05799955874681473, 0.17517593502998352, -0.23985899984836578, 0.10447101294994354, 0.074185810983181, -0.14812606573104858, 0.04744558036327362, 0.03129514679312706, -0.19203026592731476, 0.02576974220573902, -0.017803391441702843, 0.00351446564309299, 0.08209211379289627, -0.0962701365351677, 0.07551489770412445, 0.008057627826929092, -0.07980918139219284, 0.02692520059645176, 0.11034964770078659, -0.21469008922576904, -0.06425242125988007, 0.08320334553718567, 0.07581096887588501, -0.16545537114143372, -0.04069190099835396, -0.2164817452430725, 0.07792240381240845, 0.10895233601331711, 0.23153327405452728, -0.026547474786639214, -0.03813143074512482, 0.0970345139503479, 0.0811295285820961, -0.02784056030213833, 0.21189455687999725, -0.11812093108892441, -0.14426957070827484, 0.13355854153633118, 0.0036831514444202185, -0.03498927876353264, 0.004064347129315138, -0.017060376703739166, -0.021724961698055267, 0.25936567783355713, -0.16895046830177307, -0.007401539944112301, -0.1969684213399887, -0.023559316992759705, 0.016791842877864838, 0.04448780417442322, -0.17451447248458862, 0.092588871717453, 0.0780024379491806, 0.06816212087869644, -0.07410234212875366, -0.1681358367204666, 0.16667044162750244, 0.05614499747753143, 0.008252246305346489, -0.1682421714067459, -0.0303693525493145, -0.041271619498729706, -0.06116175279021263, -0.0012106496142223477, 0.0646091103553772, 0.11902222782373428, -0.06228933855891228, 0.2516874670982361, 0.08852074295282364, -0.06440382450819016, -0.11700468510389328, 0.06683611869812012, 0.11394096165895462, -0.030533166602253914, 0.07241193950176239, -0.1071934774518013, -0.2729857861995697, 0.10085500031709671, -0.06756852567195892, -0.1343078464269638, -0.04240128770470619, 0.013348708860576153, -0.22586330771446228, -0.02909029833972454, 0.09458795189857483, -0.13863028585910797, -0.02773205004632473, 0.06912221014499664, -0.11294236779212952, -0.03979424387216568, 0.03101048246026039, 0.05258483439683914, -0.08109822869300842, 0.0022841203026473522, 0.1097264364361763, 0.11595870554447174, -0.08876308053731918, 0.24253204464912415, 0.1931958943605423, 0.09648752212524414, 0.10377904772758484, 0.04654046148061752, 0.08327666670084, -0.012268300168216228, -0.04421655088663101, -0.002252391306683421, -0.14104753732681274, 0.0440579317510128, -0.018501948565244675, -0.006277639418840408, 0.16520977020263672, 0.026567811146378517, -0.0711464062333107, -0.06539008766412735, 0.019414927810430527, -0.24102813005447388, 0.10258521884679794, 0.010218732990324497, 0.07908076792955399, 0.1159176379442215, -0.10538309067487717, -0.14391173422336578, 0.14951103925704956, -0.009014617651700974, 0.2789958715438843, -0.1367056667804718, -0.1003599539399147, 0.08407719433307648, 0.02718646079301834, -0.21044433116912842, 0.11389884352684021, 0.02060854434967041, 0.04206577688455582, 0.018792085349559784, -0.036436572670936584, -0.05994722619652748, 0.004523753188550472, -0.06995832175016403, -0.05070263519883156, 0.05529332533478737, 0.02222157083451748, -0.018987301737070084, -0.030089067295193672, -0.17972971498966217, -0.11956382542848587, -0.003646070836111903, -0.010945315472781658, 0.12527808547019958, 0.03578546270728111, 0.15009275078773499, -0.21068918704986572, 0.10389681905508041, 0.14883968234062195, 0.07871541380882263, -0.005276328884065151, 0.00783350970596075, 0.17691200971603394, -0.06921610236167908, -0.06645035743713379, -0.019918564707040787, 0.009054492227733135, -0.013802275992929935, 0.06393662095069885, -0.059607911854982376, -0.1128205806016922, -0.04092594236135483, 0.027858857065439224, -0.0955338254570961, 0.0027803070843219757, -0.08744749426841736, 0.017242711037397385, 0.15482944250106812, 0.14200888574123383, 0.11187473684549332, -0.16171380877494812, 0.15357905626296997, 0.09950742870569229, -0.13045182824134827, -0.10575837641954422, 0.11921539902687073, -0.12847310304641724, 0.1069515123963356, -0.023788291960954666, -0.06737323105335236, 0.15803106129169464, 0.10992883145809174, 0.04733451083302498, 0.16655613481998444, -0.002450321801006794, -0.2159050703048706, 0.011102010495960712, -0.18586717545986176, -0.10693499445915222, -0.30301761627197266, -0.10897114872932434, -0.0797070786356926, 0.08491452038288116, 0.04934414476156235, 0.032221730798482895, -0.16390877962112427, 0.014072519727051258, -0.06756887584924698, -0.0452810674905777, -0.021734878420829773, -0.04624302312731743, -0.14906512200832367, -0.07652562856674194, -0.008409326896071434, -0.2314700037240982, 0.1046885997056961, -0.16925381124019623, 0.11261077225208282, -0.20707641541957855, -0.09712611138820648, -0.10312222689390182, -0.11520445346832275, -0.008465076796710491, 0.1458158791065216, -0.20276226103305817, -0.02069980464875698, -0.072270467877388, 0.12177882343530655, -0.021292341873049736, -0.14803630113601685, 0.14522671699523926, -0.052084244787693024, 0.014219063334167004, 0.11236846446990967, 0.04975765198469162, -0.10189356654882431, -0.13150134682655334, 0.10344263166189194, -0.08462351560592651, 0.026391223073005676, -0.24837078154087067, 0.05789833888411522, -0.08355138450860977, -0.08479026705026627, -0.16374635696411133, -0.0009540734463371336, 0.12088673561811447, 0.5053185820579529, 0.02319294959306717, 0.3086887300014496, -0.3724474608898163, -0.08382758498191833, 0.37649184465408325, -0.043606676161289215, 0.13811343908309937, 0.14505811035633087, 0.48974883556365967, 0.15279288589954376, -0.20981881022453308, 0.006639152765274048, -0.06031053513288498, -0.06881207227706909, 0.03459092229604721, 0.06584039330482483, -0.012278789654374123, 0.10457740724086761, 0.11971612274646759, 0.07284092903137207, -0.06008853390812874, -0.0017580634448677301, 0.08908156305551529, -0.09784168750047684, -0.00292862206697464, 0.050488125532865524, 0.02448277547955513, -0.07264165580272675, 0.11482741683721542, 0.0028540040366351604, -0.008325613103806973, 0.21517731249332428, -0.07525624334812164, 0.014333867467939854, 0.08773179352283478, -0.03562244772911072, -0.14463351666927338, 0.16110633313655853, 0.11498992145061493, 0.1034252867102623, -0.30029696226119995, -0.04033146798610687, -0.2438090592622757, 0.15946747362613678, -0.059675976634025574, -0.22797882556915283, 0.16271458566188812, -0.07167399674654007, -0.0017027761787176132, 0.11361964792013168, -0.03181355074048042, 0.11941147595643997, 0.07507405430078506, -0.10125917196273804, 0.13630421459674835, 0.025395585224032402, 0.14497306942939758, 0.028507929295301437, 0.0688207820057869, -0.03432615473866463, -0.23367564380168915, 0.06271471828222275, -0.044146496802568436, 0.17323268949985504, 0.09902536123991013, 0.08691919595003128, -0.1176699846982956, -0.11699768900871277, -0.1954682320356369, 0.06917139887809753, -0.1896894872188568, -0.20986902713775635, -0.2821091115474701, -0.08174248784780502, -0.0808958038687706, 0.08389975875616074, -0.14757224917411804, 0.1408211886882782, 0.09804560244083405, 0.07724428176879883, -0.003937136381864548, 0.09605769068002701, -0.08566100150346756, -0.06955830007791519, 0.026544837281107903, 0.06566908955574036, -0.18234851956367493, -0.08503495156764984, -0.0028430717065930367, 0.1224403902888298, -0.06728977710008621, -0.2116459459066391, -0.1747688502073288, -0.0024278764612972736, 0.10811395943164825, -0.014961525797843933, -0.014979862608015537, -0.216359943151474, -0.058137208223342896, -0.169768825173378, -0.0722297877073288, -0.1471284180879593, -0.034664761275053024, 0.07878711819648743, 0.018180059269070625, 0.16755707561969757, 0.021786639466881752, 0.10406787693500519, -0.06048683077096939, -0.06277661770582199, -0.14773143827915192, 0.06218728423118591, -0.08964738249778748, 0.22053365409374237, -0.0641162097454071, -0.0667601004242897, 0.021731728687882423, -0.06392697244882584, 0.11064459383487701, 0.04540073499083519, 0.13545110821723938, -0.11751943826675415, -0.11946120113134384, 0.0020245201885700226, 0.10865487903356552, -0.14276042580604553, -0.10915113985538483, 0.20521196722984314, -0.17857015132904053, 0.024692317470908165, 0.06058293953537941, -0.10897453874349594, 0.026703253388404846, 0.22115568816661835, -0.1324005424976349, 0.0068460735492408276, -0.08440026640892029, 0.15434199571609497, 0.00411952892318368, 0.05212976410984993, -0.010407168418169022, 0.021920057013630867, 0.050591494888067245, 0.09542816132307053, -0.37023353576660156, -0.1334817111492157, 0.029762903228402138, 0.012459004297852516, -0.11366172134876251, -0.21061734855175018, -0.03986833617091179, 0.2034231722354889, -0.08288712054491043, 0.0675007775425911, -0.04319670796394348, -0.06679481267929077, -0.07983017712831497, -0.14158552885055542, 0.03539659082889557, -0.027242878451943398, 0.03234388679265976, 0.11875154823064804, 0.06980560719966888, -0.00843221228569746, 0.03320680186152458, 0.042020533233881, 0.08802942931652069, 0.014931566081941128, -0.0647244080901146, 0.10671553760766983, -0.06966859102249146, -0.025051390752196312, -0.07834769040346146, -0.1367785632610321, 0.04409509897232056, 0.070065937936306, -0.1826876699924469, 0.09297745674848557, 0.06433844566345215, -0.07469681650400162, 0.1369696408510208, 0.10757913440465927, 0.009954417124390602, -0.11942315101623535, -0.10176359117031097, -0.10611842572689056, -0.007920929230749607, 0.14115476608276367, -0.009463953785598278, 0.1072419211268425, -0.00043415112304501235, 0.007546997629106045, -0.007325925398617983, -0.04669458419084549, -0.05720790848135948, -0.0558195486664772, 0.14202357828617096, -0.15275682508945465, -0.10101812332868576, 0.12238001823425293, -0.12205920368432999, -0.12280817329883575, -0.2232987880706787, 0.06630344688892365, -0.0884665921330452, -0.16656795144081116, 0.00429734168574214, 0.04073674604296684, -0.034083325415849686, 0.07260169088840485, -0.028828125447034836, 0.006695621646940708, 0.0813671350479126, -0.07832960784435272, 0.015289593487977982, 0.14190168678760529, 0.010497958399355412, -0.03051556646823883, -0.1560000479221344, -0.004398921504616737, 0.1268576830625534, -0.10466650873422623, 0.08429314196109772, 0.01130762230604887, -0.07669568061828613, -0.0808202400803566, 0.008107801899313927, -0.12790924310684204, -0.13241000473499298, 0.1711239516735077, -0.09762005507946014, -0.2189440131187439, -0.029719727113842964, -0.019747909158468246, 0.16596192121505737, 0.1018037497997284, 0.03464781492948532, 0.30657240748405457, 0.21930991113185883, 0.07278140634298325, 0.3940041661262512, 0.1781267672777176, -0.24274718761444092, 0.17091958224773407, 0.30115246772766113, -0.2588821351528168, 0.13003136217594147, 0.17640705406665802, -0.12888981401920319, 0.5638929009437561, -0.16685731709003448, 0.1410498023033142, -0.5966624617576599, -0.07630685716867447, -0.15497305989265442, -0.17933793365955353, 0.021000009030103683, 0.10578572750091553, -0.13275186717510223, -0.07704915851354599, -0.09928921610116959, -0.05381873622536659, 0.11795078217983246, 0.09195193648338318, 0.005452646873891354, -0.1526481956243515, -0.23753684759140015, -0.08926016837358475, 0.1669696569442749, -0.32960325479507446, 0.11847314983606339, 0.19679582118988037, -0.30101221799850464, 0.08947750180959702, 0.11168807744979858, -0.2725450098514557, -0.03313343599438667, 0.14562401175498962, 0.10109155625104904, 0.6286990642547607, -0.33691132068634033, -0.33970335125923157, -0.2969171702861786, 0.46450015902519226, 0.11064501851797104, 0.02923939749598503, -0.04799625650048256, 0.04750668257474899, 0.057004865258932114, -0.01801137626171112, -0.11983297020196915, -0.03635028377175331, 0.09989650547504425, 0.0033850183244794607, -0.03742332383990288, 0.0027083626482635736, -0.1085997149348259, 0.025831952691078186, -0.10707966983318329, -0.001660238835029304, -0.2742099463939667, -0.34346240758895874, 0.6886817812919617, 0.2882804274559021, -0.5041333436965942, -0.047238584607839584, -0.10990146547555923, -0.14069277048110962, 0.43044424057006836, -0.7054458260536194, 1.1560146808624268, 0.6664609313011169, -0.016682861372828484, -0.26789170503616333, 0.21060359477996826, -0.7097786068916321, 0.01789628155529499, -0.18112589418888092, 0.12757329642772675, -0.13425949215888977, 0.014069030061364174, 0.35125479102134705, 0.005378884728997946, 0.11569123715162277, 0.19675149023532867, 0.04257696121931076, 0.1233954206109047, 0.07734973728656769, -0.3903428614139557, -0.20294959843158722, -0.16752704977989197, -0.47604900598526, 0.18314465880393982, 0.017236635088920593, 0.05318211391568184, 0.14346885681152344, 0.24380840361118317, 0.14195984601974487, 0.040336113423109055, -0.14212192595005035, -0.2843293249607086, 0.05951223149895668, -0.10762658715248108, -0.09033674746751785, 0.18366125226020813, 0.268725723028183, 0.19634538888931274, 0.023459121584892273, 0.024700244888663292, -0.1822938174009323, 0.052751462906599045, -0.3171440362930298, 0.20264627039432526, -0.13852225244045258, 0.03108600527048111, -0.2418329268693924, -0.15134917199611664, 0.15534673631191254, -0.4299646019935608, 0.198505237698555, 0.29576417803764343, -0.21747605502605438, -0.07894887030124664, 0.2794294059276581, 0.21894456446170807, -0.03154610097408295, 0.13764141499996185, 0.030581317842006683, -0.114571712911129, 0.179204523563385, -0.24036823213100433, 0.23905698955059052, 0.24102561175823212, -0.028054920956492424, 0.11347440630197525, 0.20982608199119568, 0.09880849719047546, 0.1327904313802719, 0.07420609891414642, -0.028029711917042732, 0.17827145755290985, 0.06731448322534561, 0.3354009687900543, -0.06812496483325958, 0.24983419477939606, -0.3469221293926239, 0.22999952733516693, -0.34656617045402527, 0.005979460664093494, 0.2857665717601776, 0.028437795117497444, 0.13891218602657318, -0.1701931357383728, 0.15438351035118103, 0.19564953446388245, -0.42128899693489075, 0.22359463572502136, 0.2778323292732239, 0.0025840166490525007, -0.029574783518910408, 0.11710123717784882, -0.5568351745605469, 0.7006555199623108, -0.33872053027153015, -0.31954827904701233, 0.05710235983133316, 0.20526179671287537, 0.2189883589744568, 0.20374971628189087, 0.4867783188819885, 0.47217029333114624, 0.13991044461727142, 0.11123301833868027, 0.23706009984016418, -0.15766562521457672, 0.02808675356209278, 0.38338643312454224, -0.2953839600086212, 0.21241304278373718, -0.2728826701641083, -0.26178979873657227, 0.3418518602848053, 0.11760205030441284, -0.08842688053846359, 0.27513137459754944, 0.21704687178134918, 0.15902788937091827, 0.5778809785842896, 0.20864692330360413, 0.05263686180114746, -0.20653752982616425, -0.1918511986732483, 0.11240469664335251, -0.2067030817270279, 0.08623086661100388, -0.15549461543560028, 0.09821146726608276, 0.043557509779930115, 0.0710890144109726, 0.31230810284614563, 0.03799740970134735, 0.08748455345630646, 0.0872260332107544, -0.024444419890642166, -0.1526869237422943, 0.20393916964530945, 0.03696046769618988, 0.25871413946151733, 0.2301347702741623, -0.0393768772482872, -0.26297950744628906, -0.01866666041314602, -0.08206485956907272, 0.1666446328163147, -0.04261569306254387, 0.1264723837375641, -0.17309874296188354, -0.062021661549806595, 0.1775641292333603, 0.10003041476011276, 0.26483967900276184, -0.0620729923248291, -0.28153932094573975, 0.10561778396368027, 0.06864926964044571, 0.2464328557252884, -0.15671458840370178, -0.05779740586876869, -0.1022501289844513, 0.0034890035167336464, 0.059836406260728836, -0.2399292141199112, -0.11693641543388367, 0.00843248050659895, 0.24512280523777008, -0.16961714625358582, 0.25614359974861145, -0.07705966383218765, 0.017752697691321373, -0.21928514540195465, 0.16675540804862976, -0.20833319425582886, 0.16667920351028442, -0.1037713959813118, 0.16015347838401794, 0.16661597788333893, -0.2913319170475006, 0.04564836621284485, 0.055361200124025345, -0.15833918750286102, 0.10857314616441727, 0.3614962697029114, 0.014914662577211857, 0.047422297298908234, 0.03773164376616478, 0.22709326446056366, -0.13788153231143951, 0.344413161277771, 0.15140865743160248, 0.25103309750556946, -0.11771781742572784, -0.22133347392082214, -0.18720757961273193, 0.08943400532007217, -0.24511004984378815, -0.218804731965065, -0.0047490461729466915, 0.09664501994848251, -0.4028174877166748, -0.2352163940668106, 0.023848913609981537, -0.30968254804611206, 0.08242897689342499, 0.21647262573242188, -0.31656357645988464, -0.024117035791277885, 0.16439498960971832, -0.09030301123857498, 0.07059366255998611, 0.11156173050403595, -0.05857274681329727, -0.004541346803307533, -0.0366879440844059, -0.009399626404047012, -0.24127282202243805, 0.058294571936130524, -0.1473674327135086, -0.005514512769877911, -0.026782885193824768, -0.13691559433937073, 0.06051839143037796, -0.1711224764585495, 0.05328453332185745, 0.06075557321310043, 0.20744143426418304, -0.1903734803199768, 0.02455582655966282, 0.030162423849105835, -0.17966799437999725, 0.103099025785923, -0.07821595668792725, 0.35783693194389343, 0.02608473040163517, -0.20224548876285553, -0.11333295702934265, -0.06314342468976974, 0.18490681052207947, -0.23001031577587128, 0.07494997978210449, 0.33919525146484375, 0.15378166735172272, 0.44036081433296204, -0.057599425315856934, 0.1245255246758461, -0.00024458198458887637, -0.28733497858047485, -0.2432326376438141, -0.32002776861190796, -0.08212970942258835, -0.22852343320846558, -0.33042576909065247, -0.05850425362586975, -0.0415768139064312, -0.18401135504245758, 0.21355725824832916, -0.05528755486011505, 0.3037553131580353, 0.4773823916912079, -0.20390193164348602, -0.21223193407058716, -0.3376134932041168, 0.08023999631404877, 0.025107204914093018, 0.031029731035232544, 0.05980429798364639, -0.007921138778328896, -0.07920905947685242, 0.13089978694915771, 0.0900292694568634, -0.03563214838504791, -0.05919710919260979, -0.06805358082056046, 0.011153288185596466, 0.025036359205842018, 0.013296661898493767, 0.07050937414169312, 0.02085769921541214, -0.0419984795153141, 0.10146836936473846, -0.144969642162323, -0.049931395798921585, -0.06877423077821732, 0.07814547419548035, 0.07129430025815964, 0.07670655101537704, 0.09235551953315735, 0.21850864589214325, -0.1410498023033142, -0.010081774555146694, 0.2783348858356476, 0.027653893455863, -0.1272771656513214, -0.1959267556667328, 0.0864245742559433, 0.06590916961431503, -0.025177037343382835, 0.09204675257205963, 0.08555886149406433, 0.10924164950847626, -0.11536267399787903, -0.010662679560482502, -0.17187100648880005, 0.1100117638707161, -0.24973104894161224, 0.016015900298953056, -0.05391545221209526, 0.09854759275913239, -0.21944016218185425, -0.15414468944072723, -0.05670085549354553, 0.3856651186943054, 0.046024590730667114, -0.1978188008069992, 0.06547592580318451, -0.14927802979946136, -0.037416886538267136, 0.03111165761947632, -0.09415921568870544, 0.001408223295584321, 0.006445149891078472, -0.04709283262491226, -0.09889040142297745, -0.24887211620807648, -0.0394168421626091, -0.12325882911682129, 0.022564293816685677, -0.2387167364358902, 0.4898073673248291, 0.023927578702569008, 0.3462817966938019, -0.23752176761627197, -0.18020328879356384, -0.013276862911880016, -0.18791168928146362, 0.04757266119122505, -0.14056465029716492, 0.199288010597229, 0.22734326124191284, 0.21498054265975952, 0.09010446816682816, 0.08822304010391235, 0.2010263353586197, -0.3343900144100189, -0.10552701354026794, -0.10742223262786865, -0.3511519432067871, -0.15243129432201385, -0.13038977980613708, -0.21425434947013855, -0.1785586178302765, 0.0009415829554200172, 0.02464432641863823, 0.22828488051891327, 0.03906186670064926, 0.046421296894550323, 0.06480764597654343, -0.12101883441209793, -0.03876721113920212, 0.006593008525669575, 0.04132862761616707, 0.04085448384284973, -0.05290071293711662, -0.20069146156311035, 0.08899780362844467, 0.10901015996932983, -0.2058716118335724, 0.04441176354885101, -0.0293903611600399, -0.10112562775611877, 0.4692648947238922, -0.20300175249576569, -0.23131310939788818, 0.11754246056079865, 0.006740584038197994, -0.055114295333623886, -0.15581300854682922, 0.05303947627544403, 0.1661398708820343, 0.057911571115255356, -0.14892464876174927, -0.09707175195217133, 0.01789765991270542, 0.0917840376496315, -0.16383123397827148, 0.019286025315523148, -0.08570031076669693, 0.09576550126075745, 0.0030073842499405146, 0.031040633097290993, -0.1040046289563179, -0.00856147799640894, 0.055054303258657455, 0.03596371412277222, 0.21969451010227203, -0.0009449891513213515, 0.14403675496578217, -0.03213261067867279, 0.0584477037191391, 0.06678681820631027, 0.3260434865951538, -0.019717277958989143, 0.1173267662525177, -0.056839026510715485, 0.024626197293400764, -0.017257073894143105, 0.12233807146549225, -0.029042737558484077, -0.136832594871521, -0.11873744428157806, -0.07594513148069382, -0.05698111653327942, -0.01985114999115467, -0.07040157169103622, -0.13109582662582397, 0.03784160315990448, -0.0711173489689827, 0.10738376528024673, -0.1880323588848114, -0.08872734755277634, -0.15299758315086365, 0.013981172814965248, 0.03088286519050598, 0.13295185565948486, 0.1576126664876938, 0.021761588752269745, -0.09030324965715408, 0.08771558105945587, 0.2588980793952942, 0.10690580308437347, -0.022161012515425682, -0.21214985847473145, 0.18689127266407013, 0.14014439284801483, -0.11183151602745056, 0.009161620400846004, 0.10240592062473297, 0.0215657539665699, -0.07746613025665283, -0.09938062727451324, 0.2006048858165741, 0.005496408324688673, 0.016423877328634262, -0.022333962842822075, -0.006749053485691547, 0.015970304608345032, 0.2085495889186859, -0.04875241965055466, -0.06715279817581177, 0.17114506661891937, -0.1798257976770401, -0.012442979030311108, 0.21757745742797852, 0.014723549596965313, 0.11741023510694504, -0.18691350519657135, 0.1039627194404602, 0.14476485550403595, -0.08837760984897614, 0.09323374181985855, 0.154207244515419, -0.17222636938095093, 0.12276016175746918, 0.061267171055078506, -0.2373289167881012, -0.029557745903730392, 0.0033198343589901924, -0.07063665986061096, -0.012024655006825924, -0.011357816867530346, -0.22273887693881989, 0.056338272988796234, -0.1299278289079666, 0.04376143217086792, 0.021358614787459373, 0.015651190653443336, 0.10165691375732422, 0.07268445193767548, 0.1781930774450302, -0.10439134389162064, 0.28511345386505127, -0.032388489693403244, -0.020582612603902817, -0.06792858988046646, -0.14983095228672028, 0.039035677909851074, -0.25122320652008057, 0.14061875641345978, 0.18589845299720764, 0.06935163587331772, 0.0025958397891372442, -0.18572482466697693, -0.12848635017871857, 0.014882367104291916, 0.08554118871688843, 0.03146369382739067, 0.2650569975376129, -0.4840688109397888, -0.20109735429286957, -0.06827040761709213, 0.1288413256406784, 0.2983345091342926, 0.11343561857938766, -0.15357132256031036, 0.12156450748443604, -0.04086703807115555, -0.14608466625213623, 0.033868882805109024, 0.06342200934886932, -0.09729620069265366, 0.03131706267595291, -0.09984968602657318, -0.2716158628463745, -0.43586423993110657, -0.20527325570583344, 0.48273909091949463, 0.20033559203147888, -0.05516732484102249, -0.11436852067708969, 0.09125789999961853, -0.25628235936164856, -0.27141326665878296, -0.1943102926015854, 0.09833940863609314, 0.07608526945114136, -0.021381041035056114, 0.16573546826839447, 0.055713944137096405, 0.10713134706020355, 0.07598070055246353, -0.2715291678905487, 0.06122426688671112, -0.07677125185728073, 0.002770030638203025, -0.25811856985092163, -0.11594200879335403, 0.21320588886737823, -0.08325295895338058, 0.11812756955623627, 0.11941131204366684, -0.06698372960090637, -0.015780242159962654, 0.19168449938297272, -0.1734425127506256, -0.11815367639064789, -0.29253944754600525, -0.055091939866542816, 0.0684422180056572, 0.06744427978992462, 0.08412213623523712, 0.02112131379544735, -0.14808525145053864, 0.20092833042144775, 0.028360605239868164, -0.0561433881521225, 0.15187408030033112, -0.015504147857427597, -0.24842119216918945, 0.12189150601625443, -0.02031686156988144, -0.19922327995300293, 0.34607094526290894, -0.0385102853178978, 0.13831420242786407, 0.22716368734836578, 0.12319580465555191, -0.032112013548612595, 0.07299119979143143, 0.28025558590888977, -0.20706164836883545, -0.003841783618554473, -0.208988755941391, 0.09956271201372147, 0.10125944763422012, 0.10621075332164764, 0.0286260973662138, -0.06699100136756897, -0.06123149022459984, -0.14597809314727783, 0.07163869589567184, 0.0227240938693285, -0.02228153683245182, -0.0749579519033432, -0.23507298529148102, 0.10422983765602112, -0.1179189458489418, -0.3503807783126831, -0.006011343095451593, 0.1892051100730896, -0.010892234742641449, -0.008580499328672886, -0.23367710411548615, 0.2184256613254547, 0.1562272310256958, 0.029290039092302322, -0.042150989174842834, 0.08477204293012619, 0.13564297556877136, -0.10828615725040436, -0.04828371852636337, -0.03887799382209778, -0.11701075732707977, -0.0735701397061348, 0.11941386759281158, -0.03623100742697716, -0.0943075492978096, -0.11279576271772385, 0.01059968862682581, -0.09260673820972443, 0.285203218460083, 0.013114161789417267, -0.11900642514228821, 0.010954707860946655, 0.09035394340753555, -0.24392472207546234, -0.12946555018424988, -0.04295120760798454, 0.003395091975107789, 0.13906453549861908, -0.058176491409540176, -0.05939920246601105, -0.15601195394992828, -0.16674719750881195, 0.1936246156692505, -0.3374920189380646, -0.004241278860718012, 0.17651966214179993, 0.03358784317970276, 0.07482835650444031, -0.11341693997383118, 0.08012446016073227, -0.08429476618766785, -0.30457422137260437, 0.01995432935655117, -0.20319536328315735, 0.00566537119448185, 0.24094894528388977, 0.1605989933013916, -0.1681004911661148, -0.14228597283363342, 0.011868388392031193, 0.0013569365255534649, -0.07170668989419937, -0.047610316425561905, -0.11718565970659256, -0.3462100327014923, -0.24078667163848877, -0.08237022906541824, -0.1698354184627533, -0.20538753271102905, 0.26440855860710144, -0.09213203936815262, -0.06378981471061707, 0.17842145264148712, -0.15198612213134766, -0.17616111040115356, 0.11297069489955902, 0.10184483230113983, -0.3113524317741394, -0.08585698902606964, -0.1639968305826187, -0.0625801682472229, 0.15892770886421204, 0.49121376872062683, 0.20588380098342896, -0.05890137329697609, -0.37460216879844666, -0.04275263845920563, 0.1669139713048935, 0.19188496470451355, -0.5393240451812744, 0.06245705112814903, 0.14747101068496704, -0.16142062842845917, -0.008205883204936981, -0.3309280276298523, 0.15130935609340668, 0.19030071794986725, -0.4752722978591919, -0.007252751849591732, 0.04712522029876709, -0.39877140522003174, -0.35084661841392517, -0.004585827235132456, -0.1312737911939621, -0.010332152247428894, -0.13573944568634033, 0.08018404990434647, -0.2736435830593109, 0.1875835806131363, -0.15792281925678253, 0.5384149551391602, -0.06373930722475052, 0.18482641875743866, -0.6653025150299072, 0.04969742149114609, 0.43707406520843506, -0.06335332989692688, -0.158305361866951, 0.4070930778980255, -0.15690729022026062, -0.225002720952034, 0.09975502640008926, -0.2646386921405792, -0.10781384259462357, 0.45633721351623535, 0.5286381840705872, 0.017753740772604942, 0.4310651421546936, -0.32126057147979736, -0.07903303951025009, 0.007129260804504156, 0.2377101182937622, -0.03716874495148659, 0.011585728265345097, -0.1912665218114853, 0.12958714365959167, 0.22982347011566162, -0.04783312603831291, -0.03595481067895889, 0.23656737804412842, -0.1251029372215271, -0.08729178458452225, -0.027774199843406677, 0.06631482392549515, 0.1944607049226761, -0.17671078443527222, -0.015477137640118599, 0.02266029454767704, -0.07586044073104858, -0.20517827570438385, 0.1486220806837082, -0.18054407835006714, 0.12803062796592712, 0.054686538875103, 0.17467628419399261, -0.012308178469538689, 0.24979451298713684, -0.24264468252658844, 0.013449294492602348, 0.07314491271972656, 0.046012621372938156, 0.014253026805818081, -0.09346259385347366, 0.028729962185025215, -0.16618135571479797, -0.21995103359222412, 0.16920006275177002, -0.0673883855342865, -0.14526690542697906, 0.06297311186790466, 0.04232623428106308, -0.10447856038808823, 0.060668136924505234, 0.2866804599761963, -0.30707859992980957, 0.20289424061775208, -0.007747340947389603, 0.005523282568901777, 0.02812294289469719, -0.04885384812951088, 0.05490921065211296, 0.03427129611372948, -0.07282754778862, 0.18713119626045227, -0.09625083208084106, 0.12666328251361847, 0.07374861091375351, 0.17863698303699493, 0.137748584151268, -0.20164854824543, -0.1785641461610794, -0.14770133793354034, -0.05271819606423378, 0.05147964134812355, 0.004133927170187235, 0.12079697102308273, 0.052520155906677246, 0.06250983476638794, -0.10687434673309326, -0.35497766733169556, -0.2243061661720276, 0.19786840677261353, -0.11260302364826202, 0.08072566986083984, 0.22177132964134216, 0.2706839144229889, -0.039444152265787125, 0.12285850197076797, 0.17160750925540924, 0.25002896785736084, -0.08632943779230118, -0.035936251282691956, 0.11026610434055328, -0.19527283310890198, 0.10229173302650452, 0.08343557268381119, 0.0960419699549675, 0.1258888989686966, 0.1356169879436493, 0.02292182669043541, 0.15151207149028778, 0.14073508977890015, 0.13371875882148743, 0.03153737261891365, 0.23056450486183167, -0.02918289043009281, 0.024725953117012978, 0.25603485107421875, -0.07641346752643585, -0.06538724899291992, 0.04126419126987457, 0.04857791215181351, 0.07005541771650314, -0.016029197722673416, 0.2153881937265396, -0.03287647292017937, -0.2162671685218811, -0.05549100786447525, -0.2431143820285797, -0.12155691534280777, 0.1850401759147644, -0.10078683495521545, -0.13568855822086334, 0.08076751232147217, -0.17174996435642242, -0.3071676790714264, 0.03653782978653908, 0.018057700246572495, 0.0387955941259861, 0.1680620163679123, -0.24448266625404358, -0.15957461297512054, -0.09942943602800369, -0.21201150119304657, 0.2055312991142273, 0.10636990517377853, 0.1876073181629181, -0.362062007188797, 0.09067001938819885, 0.1852952241897583, -0.1674850583076477, -0.02746359072625637, 0.16071277856826782, 0.049989476799964905, -0.2076784074306488, 0.2326241135597229, -0.1578199714422226, 0.015991654247045517, -0.0015882099978625774, -0.16582836210727692, -0.019752001389861107, 0.22247916460037231, -0.046013131737709045, 0.003394172992557287, -0.017025886103510857, -0.10606692731380463, 0.001126141520217061, -0.07633016258478165, -0.08782268315553665, -0.19154022634029388, 0.0917806327342987, -0.055020254105329514, -0.003975576255470514, -0.22085584700107574, -0.08410246670246124, -0.15992143750190735, 0.008972011506557465, 0.030007565394043922, -0.20601961016654968, 0.18381740152835846, 0.04219983518123627, -0.12782973051071167, -0.031047970056533813, 0.18806301057338715, -0.09580403566360474, 0.4894266128540039, 0.3072558641433716, 0.3019125461578369, -0.4322328567504883, -0.12276823818683624, -0.12272048741579056, -0.0980481430888176, 0.16760875284671783, 0.04772476106882095, -0.09641415625810623, -0.012934928759932518, -0.03690626099705696, -0.1258188933134079, -0.01711028441786766, 0.14341560006141663, 0.007243840955197811, -0.026475893333554268, -0.0052276477217674255, 0.10843870788812637, 0.01514939684420824, 0.15989603102207184, 0.23091548681259155, -0.08391834050416946, 0.1792258471250534, 0.22133277356624603, 0.17128914594650269, 0.14787057042121887, -0.12995657324790955, -0.06071097031235695, 0.2513909339904785, 0.27934134006500244, 0.1554250866174698, -0.22269360721111298, -0.3915780186653137, -0.09858032315969467, 0.03962278738617897, -0.10621993243694305, 0.1359497457742691, 0.1655268520116806, 0.26751548051834106, -0.0038125619757920504, 0.011571547947824001, 0.3663162887096405, 0.04979030787944794, -0.003370521357282996, 0.03972279652953148, 0.035166237503290176, 0.07378865033388138, 0.19121518731117249, -0.17230941355228424, -0.02351997420191765, -0.20967309176921844, -0.12737327814102173, 0.15517351031303406, 0.06688352674245834, -0.19871996343135834, -0.046775754541158676, -0.10136128962039948, 0.06896639615297318, 0.16756874322891235, -0.12881332635879517, 0.012688356451690197, 0.13824719190597534, -0.1891438215970993, -0.014102050103247166, 0.08193984627723694, -0.23394984006881714, -0.012662382796406746, 0.2130575329065323, -0.10021673142910004, -0.0907120555639267, 0.2990848124027252, -0.17402838170528412, 0.07037537544965744, 0.32797688245773315, -0.005454739090055227, 0.11832397431135178, 0.2679348587989807, 0.006428245455026627, -0.06828682869672775, -0.056838925927877426, 0.047456637024879456, -0.008249567821621895, 0.02690187841653824, -0.2578809857368469, -0.10645652562379837, 0.07139132916927338, 0.03339902311563492, -0.21358312666416168, -0.23264044523239136, 0.23441344499588013, -0.16172699630260468, -0.13767026364803314, 0.0653737410902977, -0.20016257464885712, -0.016803571954369545, 0.24488565325737, 0.08087579905986786, 0.09029200673103333, 0.1868574619293213, 0.1272733360528946, 0.014951027929782867, -0.03880598023533821, 0.04161149635910988, 0.012815861962735653, -0.156179279088974, -0.18334271013736725, -0.09044535458087921, -0.032973598688840866, -0.1690620630979538, -0.1173614114522934, -0.23555831611156464, 0.10635954141616821, 0.004268113058060408, -0.1721223145723343, 0.16222506761550903, 0.03527753800153732, 0.24957042932510376, 0.1013699471950531, -0.04622027277946472, -0.17464566230773926, 0.05121238902211189, 0.08518026769161224, -0.10984104126691818, 0.06437622010707855, 0.2017572522163391, -0.11076709628105164, 0.0764678567647934, -0.13407084345817566, -0.07633261382579803, -0.17394272983074188, -0.10641637444496155, -0.026809576898813248, -0.16607248783111572, 0.1442638337612152, -0.13164499402046204, 0.1517840176820755, -0.12544803321361542, -0.1471417248249054, 0.044284410774707794, -0.11740981787443161, 0.045149486511945724, 0.026312323287129402, -0.10822512209415436, -0.01423474308103323, 0.3923836648464203, -0.002267420757561922, 0.012027065269649029, -0.42726096510887146, 0.02364271506667137, -0.14081816375255585, 0.06746616959571838, 0.059307631105184555, -0.2924153506755829, -0.07094091176986694, -0.04831715300679207, 0.029734594747424126, -0.1883896142244339, 0.00312204472720623, -0.15117181837558746, -0.18486057221889496, 0.0776275023818016, -0.21176394820213318, -0.11425524950027466, 0.13780073821544647, -0.26850882172584534, -0.031214017421007156, -0.0689786970615387, -0.027800625190138817, -0.04777476564049721, 0.31151044368743896, 0.020510422065854073, -0.0673004686832428, 0.052954647690057755, 0.013889345340430737, 0.1123332530260086, 0.034538060426712036, -0.06192205473780632, -0.1726614236831665, -0.0733606144785881, 0.20455105602741241, -0.07762371748685837, -0.041742634028196335, 0.05044813081622124, 0.07130297273397446, 0.18381726741790771, 0.06917193531990051, 0.32328662276268005, 0.2031365931034088, 0.5577185750007629, -0.761225163936615, -0.3603532016277313, 0.20949028432369232, 0.28578707575798035, -0.2050027847290039, 0.26997873187065125, 0.35079705715179443, -0.8043875694274902, 0.30066990852355957, 0.008398783393204212, -0.6664683818817139, 0.17165829241275787, -0.2132890522480011, -0.26854628324508667, -0.18786592781543732, 0.18815575540065765, 0.008256602101027966, 0.10350365936756134, 0.2749115526676178, -0.06421101838350296, -0.30058228969573975, -0.21151532232761383, 0.03586626052856445, -0.12150652706623077, -0.14180943369865417, -0.006813541520386934, -0.14043673872947693, 0.08617157489061356, -0.11150363832712173, -0.07688096910715103, -0.04197045788168907, 0.2615457773208618, -0.2575991451740265, -0.08761106431484222, -0.16556906700134277, 0.21058766543865204, 0.16276134550571442, -0.14041021466255188, -0.04497146978974342, -0.24730205535888672, 0.08106973022222519, -0.12097563594579697, 0.027729663997888565, 0.3540424406528473, -0.0965321958065033, 0.24361859261989594, 0.08835312724113464, -0.028767505660653114, -0.5456360578536987, -0.2427448183298111, -0.5892691016197205, -0.3667401373386383, 0.4672040641307831, 0.19319814443588257, -0.4303208291530609, -0.07636601477861404, -0.31976476311683655, 0.20552465319633484, 0.4456891715526581, 0.04214925318956375, 0.3223225474357605, -0.2741119861602783, 0.09022361785173416, -0.06633086502552032, 0.345018595457077, 0.22013108432292938, 0.3216041624546051, 0.276184618473053, -0.19629885256290436, -0.230613112449646, -0.12305653095245361, 0.18135103583335876, -0.1970561146736145, 0.07258694618940353, 0.17633089423179626, 0.1340702772140503, -0.40204793214797974, -0.09667347371578217, -0.10183107852935791, -0.27327093482017517, 0.4544086456298828, 0.24470700323581696, -0.1180001050233841, 0.211604043841362, -0.18732096254825592, 0.47314614057540894, 0.8281604647636414, 0.029850510880351067, 0.4370805621147156, -0.3428683280944824, -0.5495324730873108, -0.18090322613716125, -0.10437046736478806, -0.2859775424003601, 0.28656139969825745, -0.1238325759768486, 0.2720428705215454, 0.037962641566991806, 0.45854586362838745, 0.2152116745710373, -0.042513251304626465, 0.2660070061683655, 0.5792204737663269, -0.16486097872257233, 0.48341017961502075, -0.027935953810811043, -0.20866712927818298, -0.26440295577049255, 0.10636021196842194, 0.18770897388458252, -0.07390699535608292, -0.2372930496931076, -0.13645173609256744, -0.11321314424276352, 0.05340992659330368, 0.2428296059370041, 0.025372888892889023, -0.12983527779579163, 0.20406652987003326, 0.07888591289520264, 0.43231865763664246, -0.12741225957870483, 0.1032290905714035, 0.008467301726341248, -0.1042402982711792, -0.3781406581401825, 0.3080058991909027, -0.036651961505413055, 0.15630219876766205, 0.19914516806602478, -0.3109748959541321, 0.019082508981227875, 0.29035401344299316, -0.046073514968156815, 0.12127319723367691, 0.03201903775334358, 0.14579743146896362, -0.1440669596195221, -0.05402084067463875, 0.33977699279785156, -0.058477189391851425, 0.006260732188820839, -0.5630929470062256, -0.06047830730676651, -0.048006653785705566, 0.22761209309101105, 0.3506656885147095, -0.2208085060119629, -0.38546428084373474, 0.04059290885925293, 0.031115593388676643, -0.207281231880188, -0.09825044870376587, 0.15174822509288788, 0.2082323431968689, -0.19847874343395233, 0.10953425616025925, 0.0893394723534584, 0.3629026710987091, 0.12642894685268402, -0.15120556950569153, -0.1365462839603424, -0.011488333344459534, -0.2284373790025711, 0.3660264015197754, -0.2485532909631729, -0.1344989836215973, -0.036113858222961426, -0.18166671693325043, 0.16296547651290894, -0.20379513502120972, 0.41732585430145264, 0.1328411102294922, 0.05745478346943855, 0.31954729557037354, -0.08339827507734299, -0.19847191870212555, -0.3589268922805786, -0.09142646938562393, 0.13722872734069824, 0.11436614394187927, 0.3035293519496918, -0.17705538868904114, -0.17798936367034912, 0.06567920744419098, -0.10181973874568939, 0.28185659646987915, 0.1503307968378067, 0.03554603084921837, -0.0396360419690609, 0.42644044756889343, -0.017696458846330643, 0.08510970324277878, -0.1021776795387268, -0.26254886388778687, 0.05119558423757553, 0.0014754084404557943, -0.49277135729789734, -0.0837966799736023, 0.3115558922290802, 0.06405716389417648, -0.33407753705978394, 0.42493727803230286, -0.0005067342426627874, -0.13191789388656616, 0.2563135623931885, -0.007794667966663837, 0.30170923471450806, 0.1791064292192459, -0.2610689699649811, -0.09806064516305923, -0.19752097129821777, 0.08755157887935638, 0.35032379627227783, -0.07538851350545883, -0.377226322889328, -0.1306966245174408, -0.22368380427360535, 0.2330688089132309, -0.2454168051481247, -0.17407824099063873, -0.11503046751022339, 0.025166917592287064, -0.04595387727022171, 0.4218182861804962, 0.10806874930858612, 0.13311384618282318, -0.006685657426714897, -0.10956420004367828, 0.0692940354347229, 0.3033808767795563, 0.06123299151659012, 0.026440879330039024, -0.41381731629371643, -0.2378324419260025, -0.29614266753196716, 0.21346445381641388, 0.25273773074150085, -0.0786360651254654, -0.0667852833867073, 0.06166732311248779, -0.09103932976722717, -0.1976214200258255, 0.009919191710650921, 0.2764977514743805, -0.15764257311820984, -0.05150716379284859, -0.3217833936214447, -0.12198156118392944, 0.020797263830900192, 0.023895742371678352, -0.2716190218925476, 0.10266271233558655, -0.2284262329339981, 0.5399963855743408, -0.13459442555904388, 0.06636068224906921, -0.26912105083465576, -0.21410149335861206, 0.15224643051624298, -0.2594897150993347, -0.2820756435394287, 0.0879821702837944, 0.1391463726758957, -0.040431782603263855, 0.29900500178337097, 0.06347309052944183, 0.3459133207798004, -0.07745181024074554, -0.18213996291160583, 0.03986867517232895, 0.08622290939092636, -0.059199124574661255, -0.10128731280565262, -0.0142251867800951, -0.0007950800354592502, 0.026793766766786575, -0.1907953917980194, 0.058525823056697845, 0.10080917179584503, 0.02837570570409298, 0.030100921168923378, -0.10315188020467758, 0.07756975293159485, -0.08813022077083588, 0.17582546174526215, 0.04789610952138901, -0.0373515784740448, 0.24852654337882996, -0.028264855965971947, -0.21644815802574158, 0.021354716271162033, 0.09389042109251022, -0.031639523804187775, -0.17024639248847961, 0.05760825797915459, 0.09826412796974182, 0.00993990059942007, 0.055659063160419464, -0.08255589008331299, 0.1599631905555725, -0.04857245832681656, 0.038877472281455994, -0.18859240412712097, -0.29048433899879456, 0.07957146316766739, 0.07205438613891602, 0.03861582651734352, 0.0005250140675343573, 0.09996353089809418, -0.025824742391705513, 0.05058647692203522, 0.3044394850730896, -0.2398490160703659, -0.12079834938049316, -0.05096587911248207, 0.1304110735654831, 0.08345716446638107, -0.016399621963500977, 0.037600982934236526, -0.022026721388101578, -0.07041889429092407, 0.21243752539157867, 0.13478070497512817, -0.37659987807273865, -0.03830515220761299, 0.013594877906143665, 0.422682523727417, -0.10322081297636032, 0.07856941223144531, -0.2652193605899811, 0.19209825992584229, 0.13188715279102325, -0.20175188779830933, -0.10168018937110901, 0.17082880437374115, 0.21488523483276367, -0.19073303043842316, -0.08787324279546738, -0.15366820991039276, -0.16346213221549988, 0.040670353919267654, -0.2912631034851074, 0.13123393058776855, 0.09828225523233414, 0.07705935090780258, -0.02641439251601696, -0.004498383030295372, 0.0594099760055542, -0.16177795827388763, -0.12207414209842682, -0.06487482786178589, 0.12540267407894135, -0.006387675181031227, 0.059345465153455734, -0.11872116476297379, 0.03705960884690285, -0.16401877999305725, 0.09348595142364502, 0.07027039676904678, 0.31120777130126953, 0.024966459721326828, -0.07067597657442093, -0.04654804617166519, -0.11378711462020874, 0.09439502656459808, -0.23115648329257965, -0.08800423890352249, 0.01950305886566639, -0.11997698992490768, -0.15029366314411163, 0.10023662447929382, -0.17933811247348785, 0.06303530931472778, 0.1507907509803772, 0.2696002423763275, -0.2750696539878845, -0.04954249784350395, -0.19564399123191833, -0.04533427208662033, 0.10108036547899246, -0.007783057168126106, -0.031368229538202286, 0.22765013575553894, 0.1769031137228012, 0.02882038801908493, -0.07775602489709854, -0.15361455082893372, 0.012275641784071922, -0.11407699435949326, -0.3010381758213043, 0.05974029004573822, 0.07871325314044952, -0.05606559291481972, -0.03300664573907852, 0.014553409069776535, 0.1489761918783188, 0.10404523462057114, 0.06273804605007172, -0.13423673808574677, -0.11967635899782181, -0.22226886451244354, 0.11714780330657959, 0.07997018098831177, -0.05884765088558197, -0.021901963278651237, -0.040735840797424316, 0.05621547996997833, 0.2826037108898163, -0.106720469892025, -0.11975031346082687, -0.10810397565364838, 0.08029863983392715, -0.02950330264866352, -0.15669788420200348, 0.06522627919912338, 0.01633494533598423, -0.23495899140834808, -0.193742573261261, 0.04269126430153847, -0.08353429287672043, 0.058326415717601776, 0.2139105498790741, 0.18893350660800934, 0.22890357673168182, -0.03642610087990761, -0.06139230355620384, -0.030469050630927086, 0.1684112399816513, -0.021975966170430183, -0.2760511338710785, 0.1592705249786377, -0.15254220366477966, 0.1644810438156128, -0.16799479722976685, -0.1720701903104782, 0.05531217157840729, -0.039530638605356216, 0.2173016369342804, -0.27936506271362305, 0.07669152319431305, 0.09969991445541382, 0.45687299966812134, 0.029614919796586037, -0.03867468237876892, 0.342976838350296, 0.1492573767900467, 0.18738602101802826, 0.06992841511964798, 0.12429728358983994, -0.019157931208610535, 0.2600017189979553, -0.20300011336803436, 0.14526581764221191, -0.20650649070739746, 0.2524649202823639, -0.31404733657836914, 0.09015126526355743, -0.02411942183971405, -0.15792204439640045, 0.09532817453145981, -0.007382913026958704, -0.03015572763979435, -0.2456948608160019, -0.09488444030284882, -0.04648960009217262, -0.10932868719100952, -0.0023209769278764725, 0.11084522306919098, -0.01423497311770916, -0.1395198106765747, -0.275222510099411, -0.020585522055625916, -0.016223128885030746, 0.20979991555213928, -0.05896478518843651, 0.1214127242565155, -0.01137621607631445, 0.2191692292690277, -0.04977152496576309, 0.15971426665782928, -0.08334417641162872, 0.008167721331119537, 0.21614086627960205, 0.07202311605215073, 0.10169558972120285, -0.23648720979690552, 0.24526140093803406, 0.08166114240884781, 0.00928004551678896, -0.1350354254245758, 0.24024325609207153, 0.09265917539596558, -0.21602027118206024, -0.1156039908528328, 0.11275450885295868, -0.17334197461605072, -0.008599580265581608, 0.07799094170331955, -0.029005588963627815, -0.007658381015062332, 0.023408787325024605, 0.060668040066957474, 0.07145494967699051, 0.17688648402690887, 0.022754693403840065, -0.012213494628667831, -0.13406017422676086, 0.07088036835193634, -0.03714197874069214, 0.0594492070376873, -0.026192380115389824, -0.11452248692512512, -0.20968028903007507, 0.18766173720359802, 0.08777966350317001, -0.11493448168039322, 0.14315786957740784, 0.03808299079537392, 0.12307872623205185, -0.1881437599658966, -0.009378437884151936, -0.20091307163238525, 0.1394151747226715, 0.06249735504388809, -0.07317288964986801, 0.274880975484848, -0.22806786000728607, 0.08861938863992691, -0.07286404818296432, -0.002853568410500884, 0.30954983830451965, 0.3559100031852722, 0.08652376383543015, -0.1941824108362198, 0.14040079712867737, -0.05034920573234558, -0.2808445692062378, -0.5562354922294617, -0.010604983195662498, -0.143513485789299, -0.43854963779449463, 0.03306279703974724, 0.026347734034061432, -0.3332749307155609, -0.09831754863262177, -0.026750756427645683, -0.2232586294412613, -0.0782182440161705, 0.032243892550468445, 0.04923413321375847, -0.06986765563488007, 0.19488316774368286, 0.08278372883796692, -0.08440037071704865, 0.09096994251012802, 0.035584595054388046, 0.11090051382780075, -0.21294042468070984, 0.33933311700820923, 0.07106970250606537, -0.027110440656542778, 0.025048526003956795, -0.06655160337686539, -0.2799224257469177, -0.05288923159241676, -0.042548954486846924, 0.18211640417575836, 0.2152555286884308, -0.01564624346792698, 0.05217316001653671, 0.24473020434379578, 0.10479158908128738, -0.04267501458525658, 0.06838694959878922, -0.5499123930931091, 0.297127902507782, -0.015074849128723145, -0.14736966788768768, 0.0483248233795166, 0.1961502879858017, 0.6675800681114197, -0.2812870442867279, -0.0950261652469635, 0.071621835231781, -0.0748748779296875, -0.019496016204357147, -0.7142583131790161, 0.2007739245891571, 0.0544162355363369, -0.0328967347741127, 0.03254733607172966, -0.2840558886528015, 1.270059585571289, 0.06072121486067772, -0.058246053755283356, -0.3275449573993683, -0.11278551071882248, -0.1698761135339737, 0.44783106446266174, 0.275978147983551, 0.1482355296611786, -0.1764678955078125, -0.2552056312561035, 0.0037200769875198603, 0.774081289768219, -0.10065270960330963, -0.062376804649829865, 0.2766324579715729, -0.17358165979385376, 